nep4 1 Cu 
cutoff 6 4 89 28
n_max 4 4
basis_size 8 8
l_max 4 2 0
ANN 30 0
 -2.0236654e+00
  1.0276612e+00
  4.4550446e-01
  7.6065373e-01
  2.2222648e+00
  2.1522819e-01
  1.0494267e-02
  6.0970843e-04
  5.4364055e-01
  2.7206898e-02
  3.5944149e-01
  3.2798093e-02
  1.5497522e-01
  1.2927969e+00
 -4.9219453e-01
 -2.8957134e-01
  1.9838886e-01
  4.8288286e-02
  3.2853448e-01
 -2.7482936e-01
  3.9775702e-01
  2.4857760e-05
  1.5157469e-02
  9.4839400e-01
 -4.2188987e-01
 -2.9648863e-05
  1.6612124e-05
 -1.9405354e-07
  4.4890505e-04
 -1.8731491e-01
  4.7542970e-05
 -9.6298445e-06
 -1.3936311e-05
 -5.0609442e-06
  9.7513575e-06
  1.0865444e-05
  7.1306163e-06
 -7.7633331e-06
  2.2830891e-05
 -4.9405415e-05
 -2.0535115e-05
 -2.7270116e-06
 -2.4124245e-05
  1.9438685e-06
  4.4395012e-05
 -1.2693521e-05
  1.7492190e-05
 -3.1508032e-05
  5.6534169e-05
  7.5245835e-06
  1.8771072e-05
 -2.3252187e-05
 -1.2432781e-05
  3.7397858e-06
  7.1891482e-06
  1.9948608e-05
 -7.0952551e-06
  1.5894091e-04
  8.8119277e-06
 -3.4328586e-05
 -8.1586668e-06
  2.2647275e-05
  1.0495194e-05
  1.9780746e-05
 -1.6836833e-05
 -2.5543841e-05
 -7.4325540e-06
  2.7997343e-05
 -6.1267572e-05
 -1.1073433e-05
  2.6445098e-06
  2.5164156e-05
 -7.4330956e-06
 -7.5599150e-05
  1.7576544e-05
  3.3620396e-05
 -5.4577476e-06
  1.6319844e-05
 -2.1415231e-06
 -2.3624207e-06
 -6.6583334e-06
 -2.1189801e-06
 -5.0585906e-05
  7.1687518e-06
  5.4698444e-07
 -5.6535218e-06
 -2.1615941e-05
 -5.3877743e-06
 -2.7121523e-06
  8.6742630e-06
  4.3225199e-01
 -1.3700372e-01
  1.1636646e-02
  2.4569277e-05
  3.9585680e-01
 -3.6451147e-05
 -2.1732526e-03
  4.5506431e-06
  7.8448993e-06
 -9.8394021e-02
  1.5684411e-05
 -2.5290938e-02
 -1.3964862e-04
 -9.4332709e-06
 -1.4699746e-06
  1.4241728e-05
  1.8471927e-05
 -1.2403741e-06
  1.3745431e-04
 -3.0301737e-02
 -5.8505397e-05
  1.2683579e-06
 -1.1438925e-06
  2.1902279e-05
 -1.6735783e-05
 -1.0528864e-06
  1.2013542e-05
  1.9326289e-06
 -7.9483452e-06
  1.8415802e-06
 -6.0844475e-01
 -1.7356965e-01
  5.6092221e-02
 -1.0938172e-01
  3.3358344e-01
 -7.2594212e-06
  3.3939552e-06
 -3.9348570e-06
  4.1490071e-06
 -8.0567962e-03
 -7.1618078e-06
 -9.0267267e-03
 -1.3754765e-05
  6.6346292e-05
  6.5284059e-03
 -4.1538132e-03
 -2.7872386e-04
  9.3365070e-06
  1.1046860e-04
 -3.5684295e-02
 -1.8171473e-05
 -3.3048847e-05
  4.3641616e-05
  9.5785708e-06
 -2.3697966e-04
 -5.4669832e-05
 -1.6558382e-05
  3.7267160e-05
 -1.4323241e-05
  1.3977150e-05
  5.0050175e-01
  1.1145431e+00
 -6.2457556e-01
 -1.5763590e-01
 -6.1393762e-01
 -5.5559838e-01
  3.1128377e-01
  3.3619914e-02
 -1.8061530e-06
 -5.1219553e-01
  3.5367240e-05
 -1.2092306e-01
 -3.5289843e-02
 -9.5604919e-02
 -8.9815810e-02
  5.4306183e-02
  1.5791802e-05
  3.9573140e-02
 -5.6275272e-01
 -7.3296231e-01
  1.5676216e-03
  1.4256544e-05
 -4.3630840e-05
 -7.0865202e-01
 -1.2588698e-01
 -5.0212126e-05
 -1.1913223e-05
  6.4879830e-05
  7.3621691e-06
 -5.0418280e-06
  4.2388192e-01
  9.4558619e-02
 -2.6191500e-01
  1.0824108e-02
 -1.5909314e+00
  3.2788821e-02
  3.0705033e-04
  4.4815712e-02
  1.9233985e-04
  3.6756549e-02
 -5.4709289e-02
 -1.4018644e-01
  1.1512405e-02
 -1.3855092e-01
 -6.7385328e-03
  1.2018590e-01
  2.0406726e-03
  2.2475899e-03
 -1.3853189e-01
  9.0664752e-02
  7.7357964e-04
 -1.7362048e-03
 -5.1147268e-05
 -3.4724712e-01
 -9.0391368e-01
  1.3941132e-06
 -7.5181639e-03
  3.8097508e-02
  6.7329520e-06
  7.2829109e-03
 -1.2091130e+00
  4.1646305e-01
 -1.2125909e-01
  3.6486128e-01
  1.4844826e-01
  1.4940915e-01
  4.9089089e-01
  5.6980979e-01
  1.1324110e+00
 -2.7034214e-01
 -1.7554900e-01
  3.1004477e-01
 -6.0604594e-05
  4.9926284e-01
  1.7584336e-01
  1.4704680e-02
 -1.2326673e-01
  9.5787913e-02
  1.0275811e+00
  4.3569071e-05
  9.9259295e-02
  1.2611035e+00
  7.2870827e-01
  1.0135169e+00
 -3.9007849e-01
  4.3433447e-05
 -1.0282458e-04
  5.3573804e-06
  1.1981858e-01
  1.3806406e-05
 -2.2125659e+00
  7.4936593e-01
  9.4889235e-01
  2.9061730e+00
 -1.5962211e+00
 -6.7161202e-01
 -3.9267969e-01
 -2.1247683e-01
  5.4380739e-01
  2.3131646e-05
  4.1063476e-02
  2.0157500e-01
 -1.6832395e-01
  5.7439798e-01
 -1.1512629e-01
  6.8972933e-01
  4.3510053e-01
 -2.6852535e-05
 -5.1181957e-02
 -1.9428411e-05
 -7.6109692e-02
  5.4559070e-01
  9.7624352e-03
 -1.4071571e-06
  2.7928424e-01
 -6.1338896e-01
  4.7608274e-01
  6.9861189e-06
  1.7444185e-05
  2.8736231e-01
  1.3666422e+00
  1.8114311e-05
 -3.1049603e-05
 -3.5411617e-01
 -5.2634031e-01
  7.6552351e-05
 -3.2215662e-06
 -3.2090547e-06
  8.1707047e-05
  8.2252070e-02
  1.4674060e-04
 -6.6720791e-02
  2.8055105e-05
 -3.6456113e-06
 -3.3410878e-03
  3.5525198e-05
 -3.6997694e-06
 -2.4987959e-05
  2.6240778e-05
  9.5999312e-06
  3.5220773e-06
 -5.6213914e-05
  5.4660472e-05
 -2.6631546e-05
  6.2299347e-05
 -1.2737350e-05
 -7.6352153e-06
  3.1908451e-06
 -1.2017730e-05
  5.6506683e-06
  3.4449229e-05
 -1.2978801e-06
 -8.6596201e-06
 -2.8784012e-05
 -6.0777929e-06
 -6.3714986e-05
  1.3180914e-05
 -3.1155867e-06
  1.3242416e-06
 -6.7609535e-06
  4.3597087e-05
 -7.2584580e-06
 -5.3558811e-05
 -6.7247231e-07
 -9.4626030e-06
  1.4955959e-05
  2.2641238e-05
  3.0918734e-05
 -3.1987138e-06
 -5.8344276e-06
 -1.3055293e-05
 -4.1106279e-05
  3.2145919e-05
 -4.5597913e-05
 -3.4703669e-05
 -5.7568818e-06
  8.0367299e-06
  7.2365023e-05
 -1.4496985e-05
  1.4680506e-05
 -2.8554780e-07
 -7.4027548e-06
  1.3529694e-05
 -1.9146137e-05
 -4.0339040e-05
  3.6714933e-05
 -7.5053547e-05
 -1.5313557e-05
  1.4071877e-05
 -7.1379468e-06
 -1.8142728e-05
 -1.1015642e-05
 -7.0215492e-07
 -5.1836574e-05
 -1.7792359e-05
  4.5651774e-05
 -7.4374575e-06
  2.1561576e-05
 -1.5908685e-05
  9.9218169e-06
 -3.4374079e-06
 -6.1650035e-06
 -4.1504359e-06
 -6.4003129e-06
 -5.1715680e-05
 -7.0534456e-06
  1.3771964e-05
  1.7261014e-05
  2.9307725e-05
 -1.2548769e-05
  3.3407534e-05
 -1.8113695e-05
 -1.1595976e-05
 -4.6350196e-06
 -3.3552707e-05
  1.8303857e-05
  3.7804690e-05
 -1.8197185e-05
  2.5349127e-05
 -1.3253600e-05
  4.5699595e-05
 -1.9552642e-06
  1.6962240e-05
  1.0375583e-05
  1.1319314e-05
 -1.2857145e-06
  4.4616640e-06
 -8.9989371e-06
  7.7363047e-06
 -2.6014741e-06
 -2.3646098e-05
  6.6965395e-06
 -4.8192007e-05
  1.6213886e-05
  2.2910865e-05
  5.4035445e-07
  1.5653035e-05
 -2.4047922e-05
  9.9116123e-06
  2.1933905e-05
 -1.2184396e-01
  3.7172027e-02
 -5.1389772e-05
 -4.3741293e-05
 -4.4231084e-01
  1.9301007e-05
  3.5361751e-05
 -2.3696217e-05
 -1.7771023e-05
 -3.9295682e-01
 -2.1419260e-06
  5.1316645e-05
  5.3668784e-05
 -9.6280119e-06
 -7.0645331e-07
 -1.0416024e-05
  2.3429325e-06
  5.6558249e-05
 -4.9885180e-05
  5.7634325e-06
  2.6241580e-06
  4.3995031e-05
 -2.7087531e-06
 -2.9000932e-05
  7.9275596e-06
  6.9948383e-06
  2.9037295e-05
 -9.1498987e-07
  1.1821221e-05
 -1.6609631e-05
 -1.5029640e-01
 -9.3780959e-01
 -4.4959612e-02
 -5.5659890e-01
  1.2636205e+00
 -8.0953228e-01
 -8.3527140e-02
  7.3853736e-03
 -2.4970384e-05
  9.7664660e-01
  2.4706891e-02
 -4.6341851e-02
 -2.3376239e-02
 -1.7170154e-04
 -3.8541627e-01
  3.4608981e-01
  6.2543368e-01
 -3.9953164e-05
  9.3414567e-02
 -9.1902542e-01
 -4.3986353e-01
  5.9062386e-01
  1.4803744e-02
  2.9902562e-01
 -7.4630266e-01
 -5.6986227e-03
  1.8785620e-06
 -6.1873719e-02
  1.2035233e-06
  4.9215097e-02
 -1.0924290e+00
 -2.2139926e-05
  2.3063498e-05
 -2.8951231e-07
  2.3110332e-02
 -4.5538265e-05
 -4.6744422e-05
 -1.7380840e-05
 -1.4159191e-05
 -7.2507487e-06
 -1.8802049e-05
  2.4153827e-05
  3.9799663e-05
  3.1015445e-06
 -1.4900656e-05
 -1.1591046e-05
  6.8898233e-05
  2.4108154e-05
 -1.9768504e-06
  2.2203844e-07
 -7.6356855e-07
 -7.3087608e-06
 -7.4050477e-06
  1.1193668e-05
  1.9425634e-05
 -2.2511773e-05
  6.3075677e-05
  1.2354231e-05
 -1.9178384e-05
  2.7071053e-06
  2.5952500e-05
  1.2248133e-05
 -3.6119638e-06
  1.0045404e-05
 -7.5917842e-07
  8.9599544e-06
  2.8317958e-05
 -1.0947317e-04
  5.0488966e-06
 -6.2119852e-06
  1.0310802e-05
 -1.8341017e-05
 -1.8737426e-05
  1.3865681e-05
  2.3405869e-06
 -1.8136238e-06
 -4.8685906e-06
 -6.0974162e-06
  7.6919987e-06
 -8.7813205e-06
 -7.8443509e-06
  6.9630528e-06
  5.8163965e-07
  3.0871393e-05
  1.6514521e-05
 -3.7208788e-06
  3.1926268e-06
  4.3492087e-06
  4.4796623e-05
  1.4093294e-05
 -2.5931524e-05
 -2.9529107e-05
 -4.1449272e-05
 -7.9385354e-06
  1.0552159e-05
  5.6877252e-07
  3.5443450e-06
  2.2843185e-05
 -1.9934527e-05
  2.2938366e-05
 -5.8647911e-05
 -2.7576991e-05
 -1.6521617e-05
  1.4967490e-05
 -1.9942241e-05
  2.0566586e-06
  9.6315653e-06
  1.5895999e-05
 -1.3848552e-05
 -2.2420429e-06
 -1.3160835e-05
 -3.4856939e-06
 -2.3983939e-05
 -4.7655922e-06
 -2.0581676e-05
 -8.9724881e-06
  3.4558907e-06
 -5.7358844e-05
 -3.8688366e-05
  2.8935556e-05
  9.9442106e-01
  4.6367168e-01
 -1.7737455e-04
 -4.2106503e-06
 -7.0792330e-06
  3.2709944e-05
  5.7676568e-04
  1.8520317e-05
 -4.5723562e-05
  8.3707370e-02
 -1.3010995e-01
  1.6020690e-01
  2.5263955e-05
 -2.2541121e-06
  1.0996941e-05
 -5.3414424e-06
  4.5953821e-05
  2.6242151e-05
 -1.0452075e-02
  2.6799513e-02
 -1.4454629e-05
  9.2885544e-05
  7.7642817e-06
 -9.5638723e-05
  3.7281775e-06
  4.9791255e-05
 -2.5118939e-05
 -1.5525115e-05
 -1.0327417e-05
 -2.5158843e-05
 -5.6078934e-06
  1.8426179e-05
 -1.8443096e-05
 -1.0762034e-05
 -8.6668697e-06
 -1.2490206e-04
 -6.8011091e-06
  1.6356967e-06
 -1.0570928e-05
  1.4355146e-05
  2.2307193e-05
  9.3966737e-06
  1.7809105e-05
 -5.5382397e-06
  9.1133288e-06
 -1.1400421e-05
 -2.7604068e-05
  1.3233037e-05
  1.1704999e-05
  1.6646429e-05
  2.0596952e-05
 -1.0805095e-05
 -8.8854722e-06
  9.1409975e-06
  2.8477905e-05
 -1.9642242e-05
  1.1096225e-05
  8.0053524e-06
 -2.1552383e-05
  2.1246882e-05
  4.1443801e-01
 -2.6738909e-01
  3.5577316e-02
 -3.7849206e-02
  2.2387762e+00
 -4.3919086e-01
  4.5584369e-01
  5.0549346e-01
 -1.1549245e-04
 -9.4040674e-01
 -1.3262226e-01
  2.1760872e-02
 -1.8214402e-01
  3.4568169e-05
  1.9765584e-01
 -2.6744592e-01
  9.9210781e-01
  1.7416698e-04
  1.1123896e-05
  6.7653674e-01
  3.4423801e-01
 -5.9663278e-01
 -2.5216088e-01
  7.6251388e-02
 -1.9756502e-02
  6.6961635e-05
  1.0984067e-04
 -2.4352800e-04
  6.1086022e-05
 -8.9586967e-01
 -9.8896133e-05
 -7.1957314e-01
  2.6126304e-01
  2.1058801e-03
  8.4960747e-01
 -3.4101380e-05
 -4.1250838e-03
  1.0735114e-05
  1.7476852e-05
  1.7455013e-01
 -1.2959817e-05
 -5.7194913e-03
 -6.9777093e-06
 -2.6557398e-06
  2.9041967e-05
 -1.0163677e-03
 -2.7817012e-05
 -6.9783287e-06
  1.8031346e-06
 -5.5080418e-02
 -1.1362880e-04
 -7.8910152e-06
  3.2522044e-06
 -8.4154417e-06
 -8.6633663e-04
 -4.3445798e-05
 -2.2946983e-07
 -1.0489252e-05
  1.5082850e-05
  2.2377549e-06
  4.2005966e-05
  1.8765351e-05
 -2.3465145e-05
 -3.9931456e-06
 -4.6461049e-05
 -3.6654892e-06
  6.5454292e-06
 -8.2784954e-06
 -2.5749825e-05
 -1.3130852e-05
  2.2525699e-05
 -6.0825460e-05
  1.5846044e-05
  3.8894013e-05
  2.9336914e-05
  1.0561640e-04
  2.0593359e-05
  3.1213734e-05
  1.0553089e-05
 -3.9355968e-05
 -5.1041428e-05
 -1.8869276e-05
 -2.5639574e-05
  7.0907954e-06
 -6.4486385e-06
 -4.8811135e-06
  3.7845482e-06
 -3.8452621e-05
  1.8158283e-06
  7.4926743e-06
  2.5212797e-05
 -1.1564761e-05
 -1.9969191e-05
  1.9645249e-05
 -5.6235549e-06
 -2.0510985e-05
  1.4750863e-06
 -2.3003797e-05
  1.0581255e-05
  2.5168322e-07
  5.0658446e-06
 -2.7804394e-06
 -7.9031788e-06
 -7.8250850e-06
 -1.4942714e-05
  5.1387347e-06
  7.6727247e-08
  1.4531808e-05
  5.1316496e-05
  5.2961070e-08
  6.1693201e-05
 -1.8014516e-05
  1.2179095e-05
 -4.5711636e-07
 -1.4020054e-05
 -1.6004220e-05
 -3.0647880e-05
 -1.0346140e-05
 -9.3694052e-06
 -4.7343063e-05
 -1.0437739e-01
  2.0992670e-02
 -1.6853462e-01
 -1.3307744e-04
 -2.2007304e-01
 -1.8065560e-06
  5.9217232e-04
 -2.5329200e-08
 -1.0796070e-05
  2.3342878e-02
 -2.0330624e-06
  5.2746496e-04
  3.7193120e-05
 -6.9789335e-06
 -2.2991328e-05
 -3.5486387e-06
  9.6454987e-06
  2.9842535e-05
  2.3838760e-05
  9.0717457e-02
  8.2517017e-06
 -8.5270422e-06
 -3.5270364e-06
 -4.5676313e-02
 -7.1878932e-02
  1.0440844e-05
 -3.6354668e-05
 -3.7910253e-05
 -3.4594650e-05
  3.3920744e-05
 -4.1786611e-01
  1.5497695e+00
  5.0119419e-02
  1.0459865e+00
 -4.8679489e-01
 -1.0655149e+00
  2.6932889e-01
  4.1347107e-01
 -7.3101506e-02
  6.7101471e-02
  3.9048793e-03
 -2.2251447e-01
 -1.3204412e-01
 -8.7948389e-02
  3.1976044e-01
  4.4676649e-06
  2.9834205e-01
  1.8969021e-04
 -3.1050646e-01
 -7.8721297e-01
 -1.1163402e-01
  5.3878175e-03
 -2.6931428e-07
 -4.3163000e-05
  3.1663287e-02
 -8.4420280e-06
 -1.1572731e-05
 -2.8574193e-06
  4.0569961e-05
  2.0720130e-05
 -5.7356514e-02
 -1.2760763e+00
  6.9951169e-02
 -4.2228279e-01
  9.8274803e-01
  6.4664519e-06
 -6.3263229e-04
  4.5951546e-07
 -4.7598824e-06
 -4.6642154e-01
 -1.7150369e-05
 -3.7350021e-02
  7.1091335e-06
 -1.0155755e-05
 -1.1665436e-05
  2.4398654e-05
 -5.0042832e-01
 -5.0345197e-06
  1.0247692e-04
 -8.6256972e-05
 -3.6599990e-03
 -7.2908051e-07
  4.9048846e-05
  5.6636862e-05
  2.0257438e-02
 -1.6966191e-06
 -6.7518877e-06
  6.1451033e-07
  3.2482898e-05
  3.9843570e-05
 -3.1631604e-01
 -1.9660168e+00
 -1.5777987e-01
  6.2892832e-02
  1.0271232e+00
  9.7400963e-02
  4.2722180e-02
 -2.3014860e-01
  1.0049603e+00
 -6.4362228e-01
 -5.9230439e-02
 -5.6372721e-02
 -1.7077176e-01
  2.6353714e-01
  2.7880820e-02
  3.2453707e-01
 -7.5670159e-01
  4.6030655e-05
  4.6557111e-01
 -1.3978377e-01
 -5.6077256e-03
 -4.7879583e-01
 -1.4586644e-01
  6.5422855e-02
 -3.5555860e-01
  2.0403249e-06
 -1.8630800e-08
 -1.6948611e-02
  5.6315232e-02
  3.9562199e-01
 -1.8231524e+00
  1.1186770e+00
  5.8030868e-01
 -2.3412356e-01
  5.8726829e-01
 -5.0664943e-01
  6.6212547e-01
 -3.2141454e-06
  1.8656165e-06
 -3.7853760e-01
  1.3331576e-01
  3.5383883e-01
  1.9408208e-06
 -2.4272688e-03
  2.6626107e-01
  3.8829692e-02
  5.6245476e-01
  4.7499380e-01
 -2.0341586e-05
 -4.1030675e-02
  1.0585234e-05
  1.9702607e-01
  6.4326274e-01
  2.8702581e-01
 -1.1094339e+00
 -2.2726512e-05
 -2.7348207e-05
 -4.2792817e-07
 -9.0986447e-05
 -9.3100352e-06
 -3.0141746e-07
  1.8697878e-05
 -4.7946551e-06
 -1.1002101e-05
  6.2126142e-06
  4.8278831e-05
  1.4374183e-06
 -4.6651028e-05
 -1.5451269e-05
  1.6214515e-05
  5.3950748e-07
 -3.4480755e-07
 -1.3709974e-05
 -4.0914103e-05
 -2.8467155e-05
  7.0958836e-06
  8.9078749e-06
  4.8290374e-05
  6.2565341e-06
 -9.0324141e-07
 -1.1664321e-05
  1.0686976e-05
 -1.4815828e-05
 -2.3968643e-05
 -7.9006550e-06
  6.0065604e-06
  1.2423235e-05
  3.1842737e-06
 -1.0705182e-04
 -9.2593427e-06
  9.2277908e-01
  9.0354160e-06
 -1.5981261e-05
  1.4189030e-01
  2.6853337e-05
 -3.3278432e-01
  2.1236226e-01
  1.7821211e+00
 -2.1474946e-01
 -1.3128941e+00
 -9.4539164e-06
  1.0617805e-06
  3.8937878e-06
  9.7937111e-05
 -7.2986388e-01
  1.1803133e+00
 -7.5525909e-06
 -1.3258896e-05
  1.6446127e-01
  2.0763925e-06
 -1.5685314e+00
 -1.5869032e-01
 -9.0855792e-07
 -1.7218043e-05
 -1.7062754e-05
 -4.6685815e-01
  3.3452343e-02
  5.5832607e-01
  1.4243006e+00
  7.1758454e-06
  1.4274800e+00
 -1.0760496e-05
 -6.6205839e-06
  4.1829234e-01
  5.2659059e-01
 -9.4057554e-01
 -1.9986280e+00
  1.7697351e+00
 -2.2419629e+00
 -5.3699082e-01
 -1.8611487e-05
 -1.5012114e-05
  3.2006559e-05
 -2.7012247e-01
  1.2343675e+00
  3.0056897e-01
  1.6565093e-05
  1.2560127e-05
 -4.0069744e-01
 -9.5064834e-06
  6.9205570e-01
  4.9600309e-01
 -3.3422709e-06
  8.6392711e-06
 -4.7387442e-01
 -1.3194956e+00
  6.7044401e-01
  1.5774121e+00
  1.0689673e+00
  7.2082257e-06
 -4.0175323e+00
 -6.7985803e-01
 -2.5179915e+00
  1.4557395e+00
 -1.0266488e+00
 -2.2684665e+00
 -1.0285254e+00
  6.9559437e-01
  1.9579132e-01
 -1.5552688e+00
 -1.3804135e+00
 -4.7930673e-01
 -1.6093737e+00
  9.9012303e-01
  1.6459420e+00
 -2.3472810e+00
 -4.6311834e-01
  1.2491859e+00
  2.0037639e+00
 -1.1891203e-01
  3.0880737e-01
 -8.7737925e-02
 -3.6983523e-01
  2.7318591e-02
 -1.6321148e-01
  3.1294379e-01
  1.5123715e+00
 -1.0809560e+00
  1.8525389e-01
  1.0559410e-01
 -4.4795737e-01
  1.8630401e+00
  8.9273252e-02
 -1.3109913e+00
  1.2262775e+00
  7.7383089e-01
 -9.2695278e-01
 -4.4249946e-01
  1.3639606e+00
 -8.2124090e-01
 -9.3005854e-01
  1.8432130e+00
  7.2087336e-01
 -1.0776817e+00
 -1.7693727e+00
 -6.1285698e-01
 -1.3076628e+00
 -7.3949359e-06
 -2.0480416e+00
  2.5081778e-01
 -1.9351223e+00
 -6.5646663e-02
  5.6696230e-01
 -7.1103674e-01
 -5.0592500e-01
 -3.5500231e-01
 -1.1829251e+00
  4.5612779e-01
 -1.4791155e+00
  1.5248492e+00
  2.5193756e-02
 -1.3542563e+00
  1.8012375e-02
  7.2502714e-01
  2.9622513e-01
 -1.0308304e-05
  5.9568357e-01
 -1.1503682e+00
  5.0289345e-01
  1.0431660e-01
 -1.0550131e+00
  7.7976209e-01
 -3.1810150e-01
 -1.2247211e+00
 -7.6058322e-01
  1.9861894e+00
 -3.1740570e-01
 -1.9233010e+00
  1.2385905e+00
  9.7917385e-02
 -9.8895282e-01
 -5.6779057e-01
  4.5991156e-01
  1.8609449e-01
  1.4882927e+00
  1.2419394e+00
  2.7933621e-01
  7.8526294e-01
  6.5278077e-01
 -6.1476943e-03
  8.9283295e-02
  1.2252882e-02
  1.2252882e-02
  1.2252882e-02
  1.2252882e-02
  1.2252882e-02
  1.1654206e-01
  1.1654206e-01
  1.1654206e-01
  1.1654206e-01
  1.1654206e-01
  9.0322092e-02
  9.0322092e-02
  9.0322092e-02
  9.0322092e-02
  9.0322092e-02
  6.0156628e-02
  6.0156628e-02
  6.0156628e-02
  6.0156628e-02
  6.0156628e-02
  2.1146728e-02
  2.1146728e-02
  2.1146728e-02
  2.1146728e-02
  2.1146728e-02
  7.6361269e-02
  7.6361269e-02
  7.6361269e-02
  7.6361269e-02
  7.6361269e-02
