nep4 1 Cu 
cutoff 8 5 206 57
n_max 12 8
basis_size 12 12
l_max 4 2 1
ANN 50 0
 -1.9536516e-05
  2.5319971e-06
 -3.6333806e-06
  1.3558983e-05
 -1.5123715e-05
  1.0509985e-05
  5.4008156e-06
 -4.5946097e-05
 -1.3341337e-05
  5.6161543e-06
 -1.1818800e-05
  1.7944041e-06
 -7.0714503e-07
  6.5463978e-06
  6.3341606e-05
  2.7918184e-05
 -1.5162004e-05
  5.4881351e-05
 -8.1453736e-06
  1.2702906e-05
  4.8875509e-06
 -2.2620152e-05
  2.8950690e-05
  5.3696003e-06
  4.0973764e-06
 -8.9330342e-07
  1.2072487e-05
 -6.2012128e-05
 -1.8397483e-05
 -6.4012529e-06
  6.7159124e-07
  3.0538926e-05
  2.3290808e-05
  2.3466122e-05
  7.7987193e-07
  8.5196356e-05
  3.0434694e-06
 -2.5127876e-05
 -1.5792533e-05
 -9.1704596e-06
 -8.8967336e-06
  8.4338999e-06
  1.3748951e-05
  9.1689062e-06
 -7.1703660e-05
  6.6434332e-05
  1.8918429e-06
 -3.9557912e-05
 -2.6454131e-08
  1.6109960e-05
 -1.7191486e-06
 -5.4369382e-05
  5.2214087e-05
  1.5761025e-05
 -3.1762970e-06
  1.0412824e-05
  1.3599785e-06
  3.1228190e-06
 -3.5972560e-05
 -1.8867247e-05
 -2.7034159e-05
 -6.0104057e-06
 -3.2855132e-06
 -2.6845842e-06
 -1.6846723e-06
  5.0745984e-06
 -5.7948415e-05
  3.6841582e-05
 -2.7284923e-06
  3.9152883e-07
  1.9014192e-06
 -3.0245010e-05
 -3.3730357e-06
  1.5454807e-06
  1.0224273e-05
 -1.3214316e-05
 -1.4500144e-01
  1.5677761e-05
  2.2748795e-06
 -6.1617728e-05
  1.9225149e-06
 -1.1235020e-05
 -1.8990570e-06
 -1.0044093e-05
  3.2455351e-05
 -7.5185235e-06
  1.8271618e-05
  1.2685826e-05
 -6.4089218e-06
 -8.1877516e-07
  1.0484828e-06
 -1.5349742e-05
 -2.3573746e-06
  4.3267864e-06
  2.8155780e-05
 -5.7345310e-06
  4.2094260e-05
 -2.8179436e-06
  3.0572232e-07
  8.4781805e-06
  3.5891020e-07
  1.0117656e-06
 -2.4259887e-05
 -1.3362427e-06
 -5.0329709e-06
 -7.3353124e-07
  1.1568131e-05
  5.8351307e-06
  3.8099985e-05
 -4.3236509e-05
 -1.7854470e-06
  1.2383406e-04
  4.3366628e-05
 -1.8627106e-05
  4.2214469e-05
  4.3558261e-06
 -1.8059476e-05
 -2.0386218e-05
 -4.6195557e-05
  9.3825875e-06
  6.1643128e-05
  6.8350355e-06
 -6.1804354e-07
  3.4854174e-06
  8.2253191e-06
 -6.9697121e-06
 -4.7359677e-06
 -1.0385563e-06
 -6.2613135e-06
  1.2538787e-05
  1.2259047e-06
  1.1302515e-06
 -1.9308533e-05
 -3.7411496e-07
 -6.7099738e-01
  3.6127755e-01
  5.0012624e-01
  6.7185253e-01
  7.3711616e-01
 -6.1896753e-01
  8.7402649e-02
 -8.6309499e-01
 -8.7248459e-02
 -5.4014558e-01
  7.2882511e-02
 -9.9185765e-02
  2.1889089e-01
 -1.9540575e-01
 -6.9596060e-02
 -1.9726858e-01
 -3.1080160e-03
 -3.4069795e-02
  6.4270644e-05
 -4.8668822e-05
 -2.4600397e-05
  3.8072842e-04
 -7.0948298e-03
 -5.2664885e-03
 -7.1424194e-02
  2.8105480e-06
 -4.8029586e-05
 -5.7128177e-06
 -1.4045037e-05
 -9.7135641e-03
 -9.9694252e-02
  1.3365666e-05
  3.6923364e-05
 -1.1561442e-01
  3.4003235e-05
  1.4824856e-06
 -1.1868627e-02
  4.1358178e-03
  5.6334200e-05
 -1.8976477e-01
  1.9833384e-04
 -3.7827536e-05
 -8.8871567e-04
  1.5996984e-04
  5.1545561e-03
 -1.4160812e-05
  5.8954447e-05
  1.2355852e-01
  1.5063118e-05
  1.4200496e-05
  2.1270912e-06
  4.4155267e-06
  7.3158742e-05
 -3.4366290e-06
 -3.5500296e-05
 -1.8671490e-05
  1.6621939e-06
  2.0591748e-05
  5.2385167e-07
  9.7231223e-06
 -3.7540292e-05
  3.0178540e-05
  1.1176152e-04
 -2.8758323e-05
 -1.9646611e-06
  3.4867753e-05
  4.5873181e-05
 -9.1032689e-06
  1.8155306e-05
  1.2025466e-05
 -6.3255124e-05
  6.1618760e-02
  5.5581074e-02
  5.1257816e-06
  6.6883462e-05
 -2.1763637e-05
 -1.2276067e-06
 -3.6871550e-06
  9.2180665e-07
 -9.9479812e-06
  2.6206724e-05
  3.2883263e-06
  5.6745168e-05
 -6.2865570e-06
 -5.9485737e-06
  2.4454999e-05
 -2.6495825e-05
 -2.8228096e-05
 -3.5378231e-05
 -3.9251816e-05
 -1.6471880e-05
 -3.1831354e-05
  1.5611493e-05
  9.9661384e-06
  4.4901603e-06
 -2.3292167e-05
 -6.3354119e-06
  1.8963137e-05
  9.8232085e-06
 -2.1619080e-05
 -6.3962329e-06
 -3.3442045e-06
 -1.9881274e-05
  6.5380073e-06
  3.4039047e-05
 -3.1215538e-06
  1.1508042e-05
 -2.0454218e-06
  1.2569428e-05
 -3.1531849e-07
 -3.1139294e-05
  4.7007111e-06
 -6.7799342e-06
  1.0529648e-05
  8.2320505e-05
 -6.9437119e-06
 -2.9296285e-05
  4.6078590e-06
  1.6454947e-05
  7.7029590e-06
  3.4168097e-06
 -5.5799552e-05
  2.8878281e-05
 -1.1627547e-07
  1.2529991e-05
  1.0199257e-05
 -1.3029315e-05
  2.3379428e-06
 -5.2458072e-06
  3.7536001e-06
 -2.3682696e-05
  1.0119566e-04
  2.7116392e-05
  6.3692009e-06
  3.3003142e+00
  1.1091842e-04
 -6.1711532e-01
 -2.0366549e+00
 -1.6934516e+00
 -7.8917772e-01
 -2.4309237e-01
  3.5341299e-01
 -2.3719768e-01
 -9.6563733e-01
 -2.7845535e-01
  3.7288347e-01
  8.5253555e-01
 -1.1057074e+00
  1.9462539e-01
  9.8250583e-02
  8.9319760e-01
  1.1100278e-01
  3.3832866e-01
  1.2104135e+00
 -4.1097525e-01
  1.2083811e+00
  5.0978112e-01
 -3.9252922e-01
  1.1125652e+00
  6.1233650e-06
  2.3239378e-02
 -5.6185949e-01
  3.1590584e-01
  2.8478014e-01
 -1.0051405e+00
  5.6753226e-02
 -1.1372884e-01
  4.2818107e-02
  2.4913379e-04
  2.8933123e-01
 -1.3918268e-02
 -2.1340559e-01
 -2.8181490e-01
  3.1626266e-01
  3.2679006e-02
 -1.1145473e-03
  1.9272372e-02
 -5.6093261e-02
 -7.3522158e-02
  6.3676405e-04
  2.6425141e-01
 -2.2573672e-01
  8.3541739e-01
 -1.4164748e-05
 -1.8606690e-05
  6.0291495e-06
 -1.7244629e-05
 -1.2399906e-06
  3.1536027e-05
  4.8771125e-07
  7.8455798e-02
 -8.1290927e-05
 -1.4042741e-06
  2.3743148e-06
 -2.0563889e-03
  5.8166447e-06
 -3.5609844e-06
 -1.2327234e-06
  2.3868273e-05
 -4.1397470e-06
 -3.7045113e-04
 -1.2530754e+00
  5.6921387e-01
 -3.4338735e-02
 -8.7523270e-01
 -5.4712659e-01
 -2.2904439e-01
  9.8511618e-01
  4.0016586e-01
 -5.1657781e-02
  1.6233374e+00
  9.3209765e-06
  4.5275583e-06
  1.0430921e-05
  4.9341845e-05
 -3.3083621e-02
 -1.2704666e-04
 -4.3360236e-05
  1.3014287e-01
 -2.9987178e-04
  4.1490406e-05
 -6.2815055e-02
  3.0636651e-02
  1.7350633e-04
  2.1469081e-02
 -9.0033236e-06
 -1.9166910e-05
 -2.6928934e-05
 -1.3132672e-05
  6.0588685e-05
  6.0221978e-06
  8.3913989e-02
 -3.6922142e-05
  2.9779794e-06
 -1.9880722e-01
  3.0126739e-01
  9.6529075e-06
 -9.7220118e-06
  2.5733048e-01
  4.6650566e-02
  2.4216401e-03
  1.2616333e-04
  3.1412292e-02
  1.9110180e-06
 -1.7088661e-01
  4.9600539e-01
 -2.7912571e-05
  1.7622559e-01
  8.0636948e-01
 -2.5636607e-01
 -2.2748591e-05
  6.1311766e-07
  3.7007456e-05
 -5.9346957e-07
  9.9044055e-06
  9.5690057e-06
  1.2122154e-05
 -1.0225417e-04
 -1.8878207e-03
 -2.1882674e-05
 -9.2052705e-06
  2.9448408e-06
 -4.1860710e-07
 -4.5030606e-06
  5.5847531e-06
  6.3045103e-05
 -9.3745039e-06
 -5.6071978e-05
  5.7554289e-06
 -1.5618540e-05
  4.3765598e-05
  1.6673446e-06
 -2.6946630e-06
 -2.6978894e-06
 -5.5231931e-06
 -1.9866866e-07
 -8.6827829e-05
 -2.3839029e-06
  2.1938040e-06
  1.7316581e-06
 -2.0231022e-05
 -2.9704581e-06
  2.8709163e-05
 -1.2005006e-05
 -1.6792439e-05
  2.0613174e-05
  3.8627422e-05
 -2.2772419e-06
 -5.9871763e-06
 -6.5775083e-07
 -4.9801884e-06
 -4.0798059e-05
 -1.0758251e-05
 -1.1479126e-05
 -1.5787009e-07
  3.1481370e-05
 -2.3016741e-05
  2.2121896e-05
  3.5773934e-05
  9.1642059e-06
 -2.7525073e-05
  2.0154188e-05
 -9.2893270e-06
 -2.8319120e-05
 -4.7216554e-06
  6.5647277e-05
 -1.7620582e-06
  2.1666008e-05
  6.8558584e-06
  6.2466730e-05
 -2.1183841e-06
 -2.3216386e-05
 -4.6631058e-06
 -1.2956856e-05
  3.1748619e-05
 -1.6547656e-05
 -9.6574004e-06
 -4.1769090e-05
  3.8941154e-05
 -6.0667617e-06
 -1.4545456e-06
  9.3123873e-08
  6.2380541e-06
 -8.9858759e-06
  2.7988604e-06
  1.6438395e-05
 -9.9915167e-05
  1.3651007e-05
  8.5137162e-06
 -8.4146406e-05
  2.3685356e-05
  2.9154338e-05
 -2.0683225e-05
 -8.6545006e-06
 -3.2902365e-06
 -4.7165772e-06
 -2.0966681e-05
  9.2976152e-06
 -3.7714913e-06
  6.5771969e-06
 -2.8459990e-05
  5.1243107e-05
 -2.0034489e-05
 -1.0692468e-05
 -1.7564202e-05
  5.9499107e-06
 -2.5197898e-05
  3.0615607e-05
  2.3385896e-06
  2.8472391e-06
  2.2905815e-05
  3.9600778e-05
 -8.8815352e-05
 -9.6111089e-06
  2.7398091e-05
 -6.5071772e-06
  3.8479980e-06
  1.2346751e-06
  3.8761285e-05
 -2.1587273e-05
  1.2127643e-05
 -6.2998902e-06
 -4.1112371e-06
 -2.0781714e-05
  2.8486111e-06
  4.3020522e-05
  1.1268281e-05
 -5.6134752e-05
  2.5791202e-05
  2.2044915e-06
  9.1856609e-06
 -1.9363622e-05
  4.3056966e-06
 -6.0118373e-06
  3.7593887e-05
 -1.2895458e-06
 -3.0828923e-07
  9.2093387e-06
 -1.8323879e-05
 -1.3090683e-05
  2.3461876e-06
  1.9239726e-05
  1.8619830e-05
  1.4660242e-05
 -1.2053033e-05
  7.5680273e-06
 -1.2745516e-06
  4.8861398e-06
 -5.4010920e-06
  1.3786951e-06
 -5.4253155e-06
  3.2721732e-06
  1.5974343e-05
 -7.9149277e-07
 -1.6792141e-05
  5.5306946e-06
 -8.3797504e-06
 -1.2971510e-05
  2.0720829e-05
 -2.5308477e-06
 -8.0509613e-05
  2.8841174e-05
 -1.1038798e+00
 -5.9054801e-03
  1.4741675e-05
 -1.0309345e-05
  2.1619394e+00
  1.1831174e-01
  2.8556472e-01
 -3.0881158e-01
  4.0200245e-02
  9.1622412e-02
  3.2006974e-05
 -4.7412683e-05
 -3.6567387e-01
 -1.0596468e-01
  8.6331619e-03
 -3.2428342e-03
 -9.0041749e-02
 -1.6069503e-01
 -1.3225599e-05
 -1.9631381e-04
 -1.0957912e-01
 -2.8030601e-01
  3.9883165e-05
  7.9083437e-04
  1.1895853e-01
 -3.1492898e-01
 -1.8433565e-01
  3.8191014e-05
 -2.2409803e-01
 -3.6690018e-01
 -2.8068764e-04
 -2.3215589e-05
 -2.0424451e-04
 -6.4217381e-02
 -8.8131242e-04
 -1.4515918e-01
 -3.9254037e-01
 -1.3259929e-01
 -1.2525306e-02
 -6.0403973e-02
 -2.7114391e-05
 -3.2782025e-06
 -1.1851250e-03
  4.8387516e-05
 -5.1586126e-06
 -1.9543144e-05
 -2.3113392e-02
 -1.6184587e-03
  2.1220157e-03
 -7.8575686e-05
 -1.5918546e-05
 -1.6281543e-06
  2.3617345e-06
 -4.9578794e-05
 -1.1763711e-05
 -5.4409252e-06
 -3.2981479e-05
 -3.2959564e-05
 -2.3717983e-05
  7.0498027e-07
  1.3534774e-03
 -1.7443272e-05
 -8.9516570e-06
 -1.7855209e-05
 -8.3603964e-06
 -2.5418592e-05
 -3.1665677e-05
  4.2625920e-06
  1.1508244e-05
  4.0587482e-05
 -3.0668900e-06
 -8.8702247e-05
  2.1674070e-06
 -3.0232613e-06
 -1.0044258e-05
  8.6379723e-06
  3.2978143e-05
  8.9090275e-07
 -1.3478065e-05
 -1.1930973e-05
 -2.1610549e-05
 -6.4665073e-05
 -1.3884824e-05
 -2.9007110e-06
 -3.5725810e-05
 -1.7516042e-05
  1.9941081e-05
  3.1106112e-05
  4.9317964e-06
 -9.5821579e-06
  1.3205987e-05
  4.9467021e-06
  5.3359395e-06
 -2.0093097e-05
 -1.4318696e-06
 -1.9110277e-05
 -1.1602363e-05
 -8.5979609e-06
  5.7219440e-06
  1.2773819e-07
 -8.2407023e-06
  7.5952980e-06
  9.2023884e-06
  2.3156756e-05
  1.9111450e-05
 -2.9909856e-05
 -1.3273457e-05
 -1.5799889e-05
 -1.9212259e-05
  7.1326663e-06
 -5.9628252e-07
  3.8113672e-07
 -4.2386822e-05
 -2.8930142e-06
  3.0222105e-05
  2.0920888e-05
 -3.8935659e-06
  1.9213619e-05
 -1.0280394e-05
  2.8544859e-05
 -2.8935390e-06
 -3.3856088e-06
  1.6958924e-05
 -8.8480965e-06
 -9.2320151e-06
 -2.6433162e-07
  7.1974405e-06
 -2.2998186e-06
  2.2628537e-05
  2.5047522e-05
  6.0527204e-06
  1.3983862e-07
  1.3607213e-05
  1.3270732e-05
  1.0069096e+00
  2.3174353e-01
 -3.5552523e-01
  1.7787246e-01
 -2.3876903e+00
 -1.7332618e+00
  2.9961190e-01
  1.0205793e+00
 -1.2979291e-04
 -1.5472154e-04
 -1.2337135e-03
 -4.3830392e-04
  7.4764339e-06
  1.6059022e-02
 -4.2012185e-01
  1.7966008e-01
 -3.1143005e-05
  5.5138774e-02
  1.5950010e+00
 -2.9233268e-01
 -6.4871722e-01
  4.3673673e-01
 -1.9239219e-01
 -6.1221503e-02
  6.4635292e-02
  1.0611792e-03
  3.5084071e-04
 -2.5497597e-01
 -2.4418400e-01
  8.8970782e-03
 -3.9597118e-01
 -7.5307176e-02
 -8.3935829e-03
 -2.5760847e-01
  6.6571654e-04
 -2.0680909e-05
  1.1806876e-01
  2.8191549e-01
  1.9545618e-01
  5.3867155e-01
  6.2101089e-06
 -1.9142577e-02
 -5.8580446e-03
 -1.1034285e-01
 -2.0682767e-01
  7.9494412e-04
  7.2628383e-05
 -9.8134726e-02
 -9.6725114e-02
  6.1604360e-06
  9.9992576e-06
 -2.1353911e-01
  2.6488395e-05
  9.6167423e-02
 -8.8498073e-06
 -4.0291039e-07
 -6.6349216e-02
  5.8494043e-04
 -1.1678970e-05
 -4.2770484e-06
  1.8634301e-02
 -2.4794140e-06
  1.3766979e-06
  8.4801541e-06
 -2.4349614e-05
  7.8836683e-07
  1.4752374e-02
 -9.4308928e-02
  9.0675585e-06
  3.4943572e-01
  2.3602235e-05
  9.5011255e-06
  1.0333425e+00
  3.6224642e-01
  1.2472756e-04
 -1.1054979e-06
 -4.6514669e-01
  2.0501021e-02
  2.4485851e-06
 -7.6633412e-05
 -3.9447755e-02
  1.7887694e-04
  2.3948231e-01
 -1.7424695e-02
 -6.2871343e-01
  5.6191772e-07
 -1.8158103e+00
  2.7285531e-02
  5.1386539e-02
  4.8283251e-05
 -2.3048483e-03
  6.0025686e-01
  2.0830453e-06
 -6.1568938e-02
  7.9957731e-02
 -1.4265581e+00
 -5.6222748e-02
 -8.9135468e-02
  6.6522553e-05
  7.0823892e-03
 -9.6934400e-06
 -4.2976544e-06
 -4.3326801e-01
 -2.7424496e-04
 -1.3298568e+00
 -3.6089013e-03
 -9.2357986e-02
 -1.3144834e-01
 -1.1103614e-05
 -3.5279863e-06
  9.5094830e-02
 -2.7362132e-06
  5.4105800e-05
 -1.5904151e-01
 -6.1237621e-01
  1.1843257e-01
 -6.5219933e-06
  7.2269584e-05
 -1.2754306e-01
  9.7871616e-06
 -3.1423101e-01
 -4.3887133e-07
  3.6095941e-04
  3.4172140e-02
  4.4933659e-01
  1.5371503e-05
 -4.4789317e-06
  8.8745481e-05
 -3.5815450e-05
  4.4881537e-05
  6.8827217e-06
  2.0589716e-06
  4.6441278e-06
  1.2687370e-03
 -1.2089763e-02
  2.2670026e-03
  1.8270533e-04
 -2.8035191e-01
  4.3986729e-01
  3.3473630e-02
  3.1199815e-02
  5.8782123e-02
 -1.4956985e-02
 -1.8380783e-03
 -1.5841912e-05
  3.0380020e-01
 -9.2432398e-04
  2.3933820e-02
 -9.2317921e-04
  7.8115491e-03
  1.2373955e-01
  1.4358105e-01
  1.9386094e-07
  5.3226646e-02
 -7.1085535e-04
 -1.8275539e-04
  2.7337305e-03
  2.3131901e-02
  4.0886673e-04
  1.5900308e-05
 -1.2436063e-05
  7.0418748e-05
  2.6067520e-02
 -1.5663961e-04
  8.3191488e-03
  3.3175196e-02
  7.1869449e-06
 -1.5724376e-03
  8.9485402e-06
  3.4767087e-05
 -3.8129496e-05
  5.9087249e-03
 -6.1634645e-02
 -1.0346144e-03
  1.1710878e-03
  7.6017950e-06
  1.5366890e-01
 -2.3122596e-04
  1.7264271e-02
 -5.4388831e-05
  2.5821382e-03
  5.1527312e-03
 -3.6973425e-03
  1.6537744e-04
  1.8692390e-05
  3.6798947e-06
 -4.0189600e-05
 -9.2922674e-06
 -8.2702280e-07
  1.0896524e-04
  9.9279769e-03
  5.7046445e-06
  4.3120735e-06
 -2.2072290e-04
 -2.3053605e-03
  5.0629140e-05
 -4.5786925e-05
 -8.4873842e-05
  2.5864724e-06
 -3.6434454e-04
 -2.3914077e-03
  5.3482138e-02
  1.2241710e-05
 -4.8646449e-05
 -4.0630757e-06
 -1.8146955e-05
  2.0496860e-05
 -1.8818014e-06
  9.1988986e-06
  2.1676491e-05
  8.4849176e-05
  3.1390066e-06
 -3.3197390e-05
 -1.0685442e-05
 -1.2996818e-06
 -5.7649067e-06
 -7.2025682e-06
  8.9557070e-06
 -2.5122013e-06
  1.3134692e-05
  3.8727667e-05
  1.2234364e-05
 -9.9357203e-06
  1.1214656e-05
  1.7999886e-05
  7.5020484e-06
 -1.5639207e-05
 -3.9341576e-05
 -8.6787168e-06
 -1.2543422e-05
 -1.6910396e-06
  1.1876616e-05
 -6.5776709e-05
  2.2265267e-06
  2.6339685e-06
 -3.2934178e-05
 -1.8164401e-06
  1.4027926e-05
 -5.2759819e-06
  8.8922479e-06
 -4.0802588e-06
 -1.4962953e-05
  1.2993760e-05
 -2.4025916e-05
 -1.1665657e-05
 -1.5797331e-06
 -1.1827686e-05
 -6.6370209e-05
  5.4790121e-02
  2.7553931e-06
  9.6296353e-05
 -7.6465876e-06
 -1.7243608e-05
  2.3219800e-06
 -4.8932619e-05
 -4.6724244e-06
 -2.0778039e-06
 -1.9179711e-06
 -7.9005404e-05
  5.5069486e-06
  3.2245105e-05
 -1.0903022e-05
  5.0744547e-06
  3.5180747e-06
 -2.6918702e-05
  2.3889654e-05
 -4.6825685e-06
  2.4112207e-05
 -4.7624614e-03
  1.9353222e-03
  2.5035230e-05
 -5.3649056e-01
  2.4725698e-02
 -2.0443045e-01
  1.1651880e-01
  4.4002037e-02
 -1.2765439e-01
 -1.7895851e-01
 -1.1335581e-04
  1.8856402e-01
 -4.5260153e-04
  1.5998669e-02
 -5.1368895e-04
 -3.3980248e-06
  1.1777175e-01
  6.4054523e-03
 -8.0882826e-05
  3.4765821e-02
 -6.2376566e-05
  2.8682582e-02
  3.1730100e-03
 -4.5235164e-02
  5.0827238e-04
  1.7165052e-05
  7.4941367e-05
  2.4466231e-04
  2.5773432e-02
 -2.0633485e-04
  2.8721908e-02
  1.0408557e-02
  2.4090199e-04
 -2.9273555e-04
  1.5423575e-03
  2.7697871e-04
  3.6691554e-02
  2.3209926e-02
 -1.2594664e-01
 -1.1063381e-03
  4.2535560e-03
  8.2880100e-03
 -1.3540292e-05
 -1.3010588e-01
 -3.5420529e-04
 -2.4557419e-04
  2.4623329e-02
  3.7556228e-03
 -3.6332157e-02
  2.2100560e-02
 -2.5708474e-05
  7.6911994e-05
 -1.0009599e-03
 -2.1452273e-05
 -1.3201787e-04
  1.8954595e-05
  3.4769516e-02
 -9.5818314e-06
 -1.4669612e-05
 -1.1726334e-02
 -1.1581335e-02
 -1.7430495e-05
 -3.0349720e-05
 -1.1727432e-05
 -1.2323098e-06
 -5.8053777e-04
 -6.2418529e-03
  1.2932080e+00
  5.6163888e-05
  1.0524004e+00
  3.2940090e-01
 -2.4359851e+00
 -1.6166988e-01
 -3.6575086e+00
  1.7074643e-01
 -7.4623275e-01
 -4.4738927e-01
 -8.0867210e-07
 -7.4584506e-02
  5.7513559e-01
 -5.5621423e-02
  5.7403937e-02
 -4.5067988e-02
 -8.0355667e-06
 -3.5747222e-03
 -9.4157867e-06
 -4.9853319e-01
  7.1796072e-01
  8.4504776e-02
 -2.9154554e-01
 -8.2756564e-02
  4.0022429e-02
  7.2100629e-06
  1.4023781e-02
  2.6840929e-05
 -1.0006940e-01
  7.8352606e-03
  1.8617059e-01
 -4.2282186e-02
 -1.0006317e-05
 -1.5828000e-02
  7.7261811e-06
  5.3742265e-06
  8.3900441e-04
 -1.6398448e-01
  2.5892821e-01
  7.0000462e-02
 -5.5108726e-01
 -7.5439669e-02
 -2.5851915e-02
 -5.5594663e-03
  2.4628428e-01
 -5.6092301e-03
 -4.5376590e-01
  4.1018985e-02
 -1.9372454e-01
  2.5080837e-08
  2.0967011e-05
 -8.6509099e-06
 -1.5322932e-05
  3.4488417e-05
 -2.4184166e-05
 -4.0215727e-05
  3.7305748e-05
  2.8160261e-05
  8.9600089e-06
  4.0242503e-06
 -1.9064284e-05
  1.4823777e-05
 -6.4391168e-07
 -1.7028831e-05
  8.0144728e-06
 -1.5904972e-05
  8.7065191e-06
 -2.4442216e-03
  2.9747695e-01
 -3.6513990e-01
  3.3632477e-06
 -3.0628061e+00
 -1.3026826e+00
 -9.3649977e-01
  2.0763621e+00
 -5.0975281e-01
 -5.3368735e-01
 -1.7428280e-05
  1.1513881e-01
  7.0515043e-01
 -8.5432024e-05
 -3.7867650e-01
  3.8939509e-01
 -5.2546379e-03
 -3.7973142e-01
 -2.7337146e-03
 -1.0020682e+00
 -1.4059191e+00
 -1.0958342e-01
 -4.8668921e-01
  1.0115554e-02
  3.3336374e-01
 -1.9367008e-05
 -1.1675565e-01
  6.5023691e-04
 -9.2820168e-02
 -1.0495707e-01
  2.7465550e-02
 -6.6886574e-01
  1.3713605e-03
  4.4338375e-01
 -1.5331898e-02
 -1.1271585e+00
  2.7255577e-01
 -6.2652510e-01
 -2.3748666e-01
  3.7903085e-01
 -2.3591734e-01
 -4.7793808e-05
  4.0945131e-01
 -2.9325256e-01
 -1.8131563e-01
  1.5850947e-06
 -2.7065301e-01
 -1.2322507e-01
 -3.9247327e-02
 -2.0934501e-06
  4.0418108e-05
 -2.7228969e-01
  6.7209435e-06
  5.0948987e-05
 -6.9290414e-05
 -6.3179364e-06
 -3.1833333e-01
  1.9903371e-01
  6.4768701e-06
 -1.5686734e-05
 -2.3994438e-02
  8.1325406e-06
 -3.1358031e-05
 -2.4134644e-05
  5.7878460e-06
 -7.3028500e-03
 -5.4826432e-01
 -8.4178428e-06
 -8.6977816e-05
 -9.7869643e-06
  5.8204931e-01
 -1.6031192e-01
 -4.3421194e-02
 -2.2055775e-01
 -9.5948942e-02
  8.3313107e-02
  6.2900044e-02
 -1.4454871e-06
 -2.3174857e-01
  1.5109318e-04
 -4.1167933e-02
 -4.4100918e-05
 -1.4984859e-02
 -1.5963115e-01
 -2.4796393e-02
  1.6878986e-04
 -1.0929521e-03
  1.5087987e-06
 -1.2179179e-01
 -2.7320450e-02
 -1.4588785e-02
  2.9899722e-05
 -1.7425484e-05
 -1.7427877e-02
 -1.0287938e-04
 -5.3556230e-02
  1.3225515e-05
 -6.8551108e-02
 -1.0810037e-02
 -1.1676877e-04
  5.1668927e-04
 -4.8067729e-04
  2.0714961e-05
 -5.7888519e-05
 -2.3066411e-02
 -3.8364909e-03
  1.1721512e-01
 -3.2659195e-02
 -7.9166231e-04
  5.4905238e-05
  3.9272761e-04
  9.2225870e-05
  1.0885764e-03
 -1.0307621e-02
  1.2438648e-01
  5.3599838e-02
 -3.2100498e-04
  3.5543981e-05
 -4.8541067e-05
  6.8478308e-05
  1.7142183e-05
  9.8513783e-06
 -5.6337736e-05
 -7.1114519e-05
 -1.1100311e-05
  2.8078994e-05
  9.2812108e-05
  5.2410034e-03
  1.7280212e-07
 -2.5857782e-06
  3.7572274e-05
  1.3417230e-06
  1.8880249e-04
  3.6939790e-03
 -3.6754960e-01
 -1.8499039e-04
  6.6505618e-06
  6.1121961e-04
  4.6898612e-01
  2.5355107e-01
  4.0135741e-01
 -2.0342503e-01
 -7.1814352e-06
 -3.5252833e-05
 -2.7034796e-06
  1.4740815e-06
 -4.5801222e-05
 -7.7223347e-05
  2.3044748e-03
 -2.4234496e-01
 -4.4528052e-02
 -2.7526957e-03
 -4.8374632e-06
 -7.8476376e-05
 -2.0032519e-05
 -1.8128614e-01
  1.5824629e-05
 -3.2381606e-05
 -3.6547231e-04
 -1.0241279e-05
 -7.5337302e-06
  2.2518832e-05
 -6.2459047e-05
  4.9292226e-04
  2.3279797e-04
 -1.3002559e-02
  7.1583614e-05
  7.0130676e-02
 -1.3222193e-06
  1.3741350e+00
  5.0701142e-06
 -3.8880369e-01
 -6.8041867e-01
  2.6431786e-02
  4.5670058e-06
  1.5477445e-04
  1.1701593e-01
  2.0159869e-05
 -1.3915380e-02
  5.1228527e-04
 -5.4604821e-05
  4.7765625e-01
  3.0828092e-02
 -5.0856903e-05
  1.0163706e-04
 -1.7293896e-05
  3.2530723e-05
  3.1062061e-06
 -1.9269844e-06
  3.3166620e-05
 -5.9529275e-02
 -1.0028709e-04
  3.0440100e-05
  6.2845211e-05
  1.8712284e-05
  1.8505882e-05
  1.3412468e-05
 -8.4364660e-07
 -1.4117797e-05
  6.0555976e-06
  4.3773132e-05
 -9.7398988e-06
  1.6871176e-05
 -9.5811010e-06
  1.5059425e-05
 -8.2762335e-06
  1.3589219e-05
 -8.3884943e-06
  1.1610844e-06
 -3.6949863e-05
 -7.2027447e-05
  1.2609758e-07
 -1.4490677e-06
 -2.0292887e-06
 -7.3628662e-06
 -6.4706041e-06
 -2.8502427e-05
  1.6917479e-06
 -4.5062297e-05
  1.6355822e-05
  1.7672224e-06
 -4.7169300e-07
  7.2028538e-06
 -9.5439260e-05
 -6.0647626e-06
 -5.0130666e-06
 -1.2653724e-05
 -1.0350425e-06
  1.5867110e-05
 -2.6721569e-05
 -4.1188217e-05
 -6.7214410e-06
  1.7287462e-06
  2.8030363e-05
  1.7199334e-06
 -8.6559485e-06
  2.1109324e-06
  1.0677161e-05
 -2.4609990e-05
 -3.4483790e-05
 -1.2320897e-05
 -9.7028478e-06
 -7.2354655e-06
 -1.0316557e-05
  2.6420621e-06
 -2.3611303e-05
  5.5260589e-06
  8.5327210e-06
 -3.1122240e-06
 -2.1610165e-05
  1.1246338e-05
 -2.3007944e-05
  2.8477007e-05
 -2.9287159e-05
 -2.5635268e-07
 -1.4166981e-05
  1.2308725e-05
  4.3120003e-06
  1.0881627e-05
  9.4284278e-06
 -1.8925875e-05
 -6.9175103e-06
 -4.5328170e-06
 -1.0172228e-05
 -1.1639585e-05
 -2.2110908e-05
 -2.2167234e-05
  2.5524947e-05
  9.4328719e-01
 -1.5454490e-01
 -1.9774503e-01
 -9.1624719e-01
 -1.3118717e-03
  5.1913792e-01
 -3.4992161e-01
 -3.0766812e-01
  2.1491164e-02
  6.0829526e-01
 -5.9868097e-01
  1.6944207e-02
 -1.4626323e+00
  2.4033688e-01
 -1.6582957e-01
  8.1846368e-01
  3.7537302e-05
  8.0075316e-02
  9.8491250e-07
 -4.0073163e-04
 -2.6029316e-01
  1.3172767e-01
  4.1411325e-01
 -4.8587009e-01
 -5.4839039e-01
  8.3185296e-05
  6.8995172e-01
 -6.5353110e-02
  8.0424145e-02
  5.0127435e-01
 -2.0974644e-01
  5.6825715e-01
 -7.9389252e-02
 -1.4918302e-01
  1.4159176e-01
  4.0419278e-01
  8.9590460e-02
  7.3619920e-01
  1.6969578e-01
  3.5446602e-01
 -2.2656413e-05
 -1.2591784e-01
  5.6008669e-03
 -3.5826091e-02
 -1.1047131e-02
 -7.0290477e-04
  1.1012016e-01
  3.0806485e-01
 -2.3319252e-02
  1.8855870e-05
  5.3082022e-06
 -3.0631348e-01
  2.3795944e-06
 -1.0963807e-01
 -8.0883974e-06
  5.5490882e-06
 -2.2192604e-05
  9.5054060e-02
 -6.6597531e-05
 -7.3106878e-04
  3.0365938e-05
 -1.7047236e-05
  4.9687947e-05
 -3.5285775e-05
  7.4667935e-07
 -3.7300712e-04
 -8.6399317e-03
  3.3362262e-06
  1.0358148e-04
 -7.9185051e-01
 -6.9566691e-01
  9.3284911e-01
 -1.8602366e-02
 -1.0662534e-05
  3.7850889e-03
 -1.5169042e-03
 -4.3940503e-02
 -1.0497526e-04
  2.8570447e-02
 -2.1079533e-05
  1.5508531e-05
 -1.9390438e-05
  5.7657275e-05
  3.0522142e-03
  6.7614805e-05
 -1.5451804e-05
  4.9003404e-05
  5.5650780e-06
  2.7911371e-06
  2.2868098e-05
  8.1313425e-04
  4.1457170e-06
 -5.4654201e-06
  1.5661513e-05
  3.7141253e-05
 -1.6096612e-06
 -6.7113535e-05
  7.2820571e-06
 -9.4677916e-06
  1.4735829e-05
 -6.3054074e-05
  7.0434253e-06
  2.6397169e-05
  7.3376388e-05
  2.4942092e-05
  3.7192785e-05
  5.4272286e-06
  1.8881245e-05
 -2.6412547e-05
  3.8464614e-06
 -6.6434615e-05
  6.0273806e-06
  2.2119551e-05
  9.0006159e-07
 -1.1914982e-01
 -7.3756119e-03
  1.8505243e-05
 -7.7038829e-05
  4.9522687e-06
  5.1411275e-06
  7.3274572e-07
  5.9503741e-06
 -2.9991591e-06
  3.9376832e-06
 -1.5405285e-05
  1.4922522e-05
 -6.3345346e-05
  1.6279340e-05
  5.4612269e-07
  1.2727568e-05
 -4.4934768e-06
  3.6392044e-05
 -4.3327891e-05
 -1.3955020e-04
  4.1285850e-02
  8.8148471e-03
 -2.0368630e-01
 -5.1190126e-01
 -3.0795851e-01
  2.1787742e-01
 -6.2412489e-02
  1.0266624e-01
 -5.8978708e-03
 -7.0717120e-01
 -7.9923972e-02
  6.4708643e-02
  3.4351881e-06
 -9.0517802e-05
 -1.5108112e-01
 -2.7320860e-02
  1.7760405e-01
 -6.5818220e-02
 -2.1689071e-03
  4.2424398e-03
 -6.2613613e-03
  3.5923652e-02
  8.4039822e-02
 -6.9020629e-02
  2.9278039e-05
 -2.4832612e-05
  4.0546409e-03
  1.0564221e-04
  4.1631150e-01
 -1.2604283e-02
  1.2182967e-01
 -1.5287619e-03
 -4.5905244e-02
  4.6117581e-02
  1.6968102e-03
 -4.5731086e-01
  4.8292719e-02
  5.0967054e-05
 -4.5949996e-01
 -4.3889944e-02
  3.2420508e-03
  4.1994741e-03
 -1.4390890e-02
 -3.2225940e-05
  1.3121587e-02
 -2.3205699e-01
  3.3970806e-01
 -5.0802555e-02
 -1.3287154e-01
  1.7512155e-04
 -1.7680853e-05
  2.3950985e-05
 -3.3351986e-04
 -6.4543842e-06
  6.8280329e-05
  2.4045696e-06
 -1.9824634e-04
 -1.7877829e-01
  1.3937330e-05
  3.7518974e-05
 -2.8229363e-02
 -2.5240859e-05
 -5.3015163e-05
 -1.6360356e-04
  2.7911317e-06
 -2.2613981e-03
 -3.9439127e-03
 -2.3524310e-06
  1.6834339e-05
  3.6416532e-06
  1.0005988e-05
  2.9467478e-06
  1.6536929e-05
 -3.2207254e-07
  7.9781857e-06
 -6.0176575e-05
 -9.2187220e-06
  7.1390355e-06
  2.3241498e-06
 -2.8946929e-06
  4.2420061e-06
 -1.6918982e-06
 -7.5017110e-06
  6.8435197e-06
  3.1919330e-06
 -4.4592593e-06
 -2.8422886e-05
 -4.1619310e-06
 -6.3096791e-06
 -3.3992852e-05
  3.0140634e-05
 -6.0687205e-07
 -2.6896716e-05
  2.9985657e-05
  1.2964581e-05
 -1.1833299e-05
  5.0089498e-06
 -3.0622768e-06
 -1.0033112e-05
  3.2332475e-06
  7.6525648e-06
  3.1709114e-05
 -3.1112995e-06
 -2.1636244e-05
 -1.9705532e-05
 -7.4395721e-06
 -3.1508705e-05
 -3.6642058e-07
  4.3295520e-05
  3.3561926e-05
  3.6257320e-06
 -4.2658626e-06
  2.3459399e-05
  5.3382500e-06
 -3.5020139e-06
  9.5320565e-06
  4.6800560e-06
  1.9208948e-05
 -2.6841385e-06
  6.2123186e-06
  1.5763508e-06
  4.6346046e-05
  1.8367165e-05
 -4.1335647e-05
 -3.9751161e-05
  9.4254419e-06
  3.6500729e-05
 -2.7123280e-05
  4.6178466e-06
  1.3063132e-05
 -1.5569000e-05
  2.5852410e-06
 -4.5301731e-05
 -6.8943596e-06
 -6.3825796e-06
  9.3299368e-06
  7.5485523e-06
 -8.9943860e-06
 -9.8092387e-05
  5.0804603e-05
  7.2960606e-06
  3.5600031e-05
 -1.4445879e-05
  2.2050977e-05
 -5.6589452e-05
  2.5256924e-05
  1.4462614e-06
 -2.1295669e-05
  1.2008177e-04
  7.4240336e-07
  1.3451151e-05
 -1.4229348e-05
  6.6226271e-06
  4.5274214e-06
  5.6590270e-06
  3.8901562e-06
  5.5752207e-06
  5.1012903e-06
 -2.7402243e-06
  5.1064412e-06
 -4.5625102e-06
  9.9845984e-06
  7.5451826e-06
  1.8763512e-05
 -5.0032373e-05
  2.3053317e-05
  2.6400861e-05
  4.3670718e-07
 -1.3771670e-05
  1.3412546e-05
  3.7109014e-06
 -6.9203425e-06
 -7.1310005e-06
 -5.1977113e-06
  2.1388014e-06
 -1.1264673e-05
 -1.1627862e-06
  3.1996955e-05
 -5.4362283e-07
 -4.1842541e-05
 -3.3368204e-05
 -3.5870122e-05
  3.7856906e-05
  2.8497303e-05
  2.8602390e-06
 -1.4312130e-06
  1.0589813e-05
  5.5266828e-06
  1.7349780e-06
  5.5702782e-05
 -2.1267959e-05
  8.9386203e-06
  4.5544166e-06
 -2.4462635e-05
 -5.1616727e-05
 -5.0641274e-06
 -3.0847546e-05
 -7.5370945e-06
 -7.3911087e-06
  5.6053591e-06
 -1.6829727e-05
  1.2066436e+00
 -1.3293551e+00
 -2.2897233e-01
  3.0746625e-04
  4.1175660e-01
 -2.5902033e-01
  3.7995204e-01
 -4.7707921e-01
 -1.6475307e+00
  1.0531248e-01
  2.0980711e-04
 -7.0028938e-04
  1.2779796e-01
 -1.1300942e-01
 -1.6636892e-01
 -4.5120560e-02
 -2.4052529e-02
 -9.0093054e-02
  2.2347532e-02
 -2.0776043e+00
  4.8448488e-02
  3.8120961e-01
  1.0129845e-03
 -2.5157290e-02
  2.4190110e-03
  2.4645267e-02
  7.4010068e-03
 -5.0516742e-06
 -6.9691008e-01
  1.1640231e-02
 -2.0532671e-01
  5.8830500e-01
  6.9286019e-02
  6.1106373e-02
  1.3344120e+00
 -1.3312274e-05
  3.7854866e-04
 -1.4920033e+00
  1.5066601e-01
 -2.9615071e-01
  1.6925722e-01
  1.9286929e-02
  2.5965966e-02
  4.9422768e-01
  5.5421539e-02
  2.3614112e-04
 -1.4408776e+00
  7.1333550e-02
 -2.1191358e-05
  3.6167705e-06
  5.7689747e-05
 -2.8842648e-02
  1.1417349e-04
 -7.4164973e-07
 -2.2462589e-05
  1.5663874e-04
 -1.1524570e-04
 -3.6008278e-05
  3.8147802e-05
 -2.6047810e-06
 -4.0434024e-05
  4.6176474e-06
  5.7559305e-06
  1.4710620e-05
 -9.7421613e-03
  1.3078473e-05
  1.1350182e-01
  3.6591766e-04
  9.5736497e-05
 -1.7450586e-02
 -1.0021162e+00
 -9.2457974e-01
  1.4681703e+00
 -2.6728097e-01
  2.9875594e-01
 -4.0185884e-01
 -1.8491048e-03
 -2.3257440e-05
  4.5889863e-01
  6.7439699e-01
  9.2164191e-05
  1.5280815e-03
 -2.4200693e-01
  5.2621138e-01
  8.6532503e-02
 -1.3485509e-01
 -7.2725993e-07
  9.9093445e-02
  2.2991527e-02
 -1.6728580e-05
  5.1596552e-02
  1.4464610e-02
 -1.5363599e-02
 -1.9741279e-05
  2.6178667e-01
  1.5485811e-03
 -1.7339294e-01
  6.5615422e-01
  3.9700791e-02
  2.2877499e-03
 -6.3432339e-03
  1.6295897e-04
 -5.0447247e-06
 -2.1466047e-05
  1.6510132e-01
  2.5077598e-02
 -1.6408455e-01
 -1.1146280e-04
  5.2562203e-02
  6.9672333e-06
 -6.6669818e-06
 -7.7062666e-02
  4.9903440e-05
  5.8894418e-02
 -1.9017288e-01
 -4.3637296e-03
  1.6305482e-06
 -4.2791005e-02
  1.9622776e-01
  1.6050873e-05
  4.8843816e-05
  4.2213156e-07
  4.9805585e-05
 -2.6399597e-05
 -9.2302158e-02
  1.5169372e-05
 -3.8184302e-05
 -5.5414969e-03
  8.9829764e-06
 -3.5308511e-04
  6.7451347e-06
  3.2121377e-05
 -2.0865750e-04
 -5.6919223e-03
 -3.0367333e-02
  8.5021126e-01
 -6.6448551e-01
 -9.3039554e-01
  1.6704285e+00
  3.5528305e-01
  7.7687669e-01
  1.9130902e-01
  3.6845508e-01
  1.1555301e+00
  7.5487449e-05
  8.0545503e-01
 -5.6078125e-06
  2.9935738e-01
  4.1164585e-06
 -6.5250196e-02
  9.6486494e-02
  1.6363349e-02
 -1.4532930e-02
 -1.9457884e-05
  2.2392607e-01
  3.5593122e-02
  3.3216569e-01
  1.4104572e-01
  3.5965670e-05
  2.9496996e-02
  9.3501198e-01
  2.4472685e-01
  3.3284464e-01
  4.5191053e-01
  2.2458093e-02
  5.2845246e-01
  4.6745899e-05
  2.2516033e-02
  3.5431382e-05
  2.5395674e-01
  3.5770081e-05
  7.6276815e-01
  1.0291205e-01
 -3.6358319e-03
  4.5419086e-02
 -4.9401842e-06
  6.5866858e-02
  1.1914221e-01
  1.0364580e+00
  1.0071057e-05
  5.5723634e-02
  3.8000116e-01
  1.2257791e-01
  1.9512609e-04
  7.6265301e-06
  1.8872735e-04
 -1.4317748e-05
 -2.8817373e-04
 -3.8261725e-05
 -6.8649324e-06
  1.7316629e-04
  2.7102013e-05
 -7.3963206e-06
 -8.2488295e-05
 -2.0154875e-02
  9.1202637e-08
 -1.4449777e-05
 -6.9158582e-06
 -2.1712718e-05
 -2.5256659e-05
 -5.5655131e-05
  1.3299441e+00
 -3.0818218e-01
 -2.3362155e-01
 -7.3547894e-06
 -2.6867385e+00
 -4.0811276e-01
 -1.5739545e+00
 -2.5469253e-03
  8.6420363e-01
 -7.7171731e-01
 -4.3683928e-03
 -4.8054576e-02
  1.0999263e-03
 -9.6016955e-03
 -1.1937668e-03
 -2.9380837e-01
 -3.1680356e-05
 -1.2590578e-02
 -6.8956774e-06
 -5.3014708e-01
  3.8107389e-01
  1.4402297e-01
 -6.0764402e-01
  2.6407241e-05
  4.6057598e-05
  6.4837154e-06
 -8.5265574e-06
  2.6439386e-07
 -7.7921104e-01
  1.3263116e-05
  4.6560628e-05
 -3.2472202e-01
 -7.8653768e-02
 -3.3349645e-01
  4.5123411e-06
  2.1620795e-05
 -3.1768464e-05
 -1.6646164e-02
  9.6000254e-02
  3.2433195e-04
 -1.6449742e-02
  5.0033100e-06
 -1.5387249e-02
  1.4412617e-04
 -3.6438094e-05
 -4.1877240e-04
 -2.6615074e-01
  7.2398359e-01
 -2.1119013e-01
 -2.6789633e-07
 -7.7995348e-05
  1.8714001e-05
 -7.8420499e-06
 -1.7488341e-05
 -5.1680918e-06
  1.3122647e-06
 -2.3014794e-05
  3.3182866e-06
 -1.4522531e-04
  6.8804748e-06
  1.7872235e-05
  8.8101642e-06
  6.2107480e-05
  1.4352499e-05
 -2.4001597e-06
 -5.2123828e-06
  3.0490024e-05
 -1.8653904e-04
 -8.3180115e-05
 -1.1823112e-05
 -5.1817724e-06
  2.7718523e-04
  3.4695776e-04
 -4.0559439e-06
 -4.2935659e-07
 -2.0187317e-05
 -3.6109912e-05
 -8.5888514e-06
 -3.2239597e-05
  2.0619229e-05
  3.0337191e-05
 -7.0607207e-06
  1.9804536e-06
  8.4196267e-07
 -3.8578281e-05
 -3.6804842e-05
  4.7728172e-05
 -1.8552952e-05
 -4.3608538e-06
 -1.1968345e-05
  5.9483951e-05
 -4.0836612e-06
 -9.1248330e-06
  3.4030604e-06
 -2.4947581e-06
  3.0567964e-05
 -6.5102504e-05
 -8.2394181e-06
 -1.3457597e-05
 -3.2591404e-05
 -1.3339545e-06
  4.0259442e-06
  1.9825866e-06
 -2.2127417e-05
 -3.9256179e-08
 -1.9699404e-05
 -1.9310441e-05
 -4.1181006e-06
  4.6172845e-05
  9.0815192e-06
 -1.1008162e-05
 -6.4185679e-07
 -2.1540349e-05
  3.9338643e-06
 -1.3523238e-06
 -6.5297654e-06
  3.3081851e-05
 -3.9485053e-06
 -5.4973709e-05
 -1.1219263e-04
  2.4480723e-06
 -1.5966793e-06
  1.2610009e-05
 -5.0431736e-05
 -5.6200251e-06
 -1.2117481e-05
 -1.6078762e-05
  1.6760040e-06
 -3.9372742e-05
  1.1252232e-05
 -3.0741298e-06
 -4.8708076e-05
 -1.6390629e-06
 -6.8126712e-07
  1.1609515e-05
 -7.1658164e-06
  2.9071580e-05
  2.1567781e-05
  3.7537662e-05
  6.0341495e-06
  1.7107362e-06
  2.9574535e-06
 -4.4109631e-05
  4.4453951e-05
  3.1238967e-05
 -2.1478072e-06
 -3.5817652e-06
  1.4836659e-05
 -2.1924907e-05
  2.6452522e-05
 -7.4372097e-06
  2.3681820e-05
 -1.8944900e-05
  9.9120234e-07
  5.2864496e-05
  9.4863935e-05
 -3.3200765e-06
  8.6133870e-05
  1.6757901e-06
  2.1501901e-05
 -1.3423476e-06
 -2.3892889e-07
 -3.0130914e-05
  4.7184262e-06
 -7.3828542e-06
  2.1359932e-05
  3.2685675e-06
 -4.9903614e-05
  5.3905219e-06
 -3.1562679e-06
  2.6475832e-06
  6.3250000e-06
  8.0781691e-02
 -3.8967637e-06
  2.2628239e-05
  6.8192253e-07
 -1.7479122e-05
 -5.1455850e-06
 -2.7759456e-06
 -3.8628973e-06
  3.0056744e-05
  5.5129262e-06
  6.4165984e-06
  1.8651695e-06
 -1.6151971e-06
 -1.1223294e-05
 -3.9836414e-06
  3.3618511e-05
 -2.1780203e-05
 -1.7131844e-05
  2.9499824e-05
 -6.2452782e-06
  7.0802757e-06
 -1.8383675e-05
  3.2678822e-06
 -3.2221033e-05
  3.8901176e-06
  7.1167970e-06
 -1.4487703e-06
 -9.0656573e-07
 -6.3043622e-06
 -9.9226181e-06
  1.6991549e-05
  2.1358908e-05
  3.2028951e-05
 -7.5378493e-06
 -4.6312889e-06
  1.4374450e-08
 -5.8875739e-06
 -5.8476817e-05
  1.7671415e-05
 -9.6764245e-07
 -1.8666071e-05
 -2.5480032e-05
  5.0134563e-06
  4.8892593e-07
 -9.8261871e-06
 -1.6696527e-05
  1.8170660e-05
 -4.8884585e-06
 -1.7836725e-05
 -6.1741703e-06
 -1.5177122e-05
 -5.2021842e-06
 -2.6731252e-06
  4.5900320e-05
  1.1948302e-05
 -3.1212269e-06
  1.3584314e-06
  1.3446481e-05
 -4.8969690e-05
 -2.2369295e-06
 -1.9477709e-05
  2.0128984e-06
 -5.5385767e-06
  6.7061114e-06
 -2.0671414e-06
  1.8563098e-06
 -2.2148431e-06
 -3.4499635e-06
  3.8800306e-05
  3.6216175e-06
  1.2555760e-05
 -5.6641206e-06
 -1.2859576e-05
  6.8139002e-07
  6.0178518e-06
 -3.5256071e-06
 -7.2698213e-06
  6.3329149e-05
  1.9406712e-06
  1.2528991e-04
  1.7923883e-05
 -1.8564442e-05
 -7.0874617e-06
 -2.7291262e-06
 -1.8515277e-06
 -5.4543261e-06
 -7.8975114e-05
 -3.2493710e-05
 -3.7920865e-05
 -1.3409997e-05
 -1.8038081e-05
 -7.2879157e-06
  2.0701898e-05
 -1.6047465e-05
 -1.4324712e-05
 -3.6491907e-05
  2.0831785e-06
 -1.1655741e-05
 -1.1156629e-05
  7.5096141e-06
  9.4787350e-07
 -1.4000494e-06
 -4.6173729e-05
 -1.5819905e-05
 -1.5787789e-05
 -3.3570948e-05
 -1.1833269e-05
 -2.1078517e-06
  1.4836548e-05
  4.9629909e-07
 -9.1345582e-06
  1.8728933e-05
  2.8204586e-06
  2.0837500e-05
  3.8627772e-06
  6.9455464e-06
 -1.3209375e-05
  6.9980542e-06
  1.6563969e-05
 -4.9491350e-06
  3.6145661e-06
 -6.1503310e-06
 -1.0905059e-06
 -3.4677483e-05
 -1.6306678e-05
  7.1426381e-05
 -3.2233763e-06
 -9.0539152e-06
  4.4980370e-06
 -6.0295561e-06
  5.2394091e-05
 -3.5455378e-05
  3.6787296e-05
 -2.2893320e-05
  1.5130920e-05
 -9.6677904e-06
 -4.3259288e-06
  6.6941643e-06
 -2.0411844e-07
 -2.4950609e-06
  4.6800255e-06
  2.0231942e-06
 -3.8441754e-05
 -3.7435420e-05
 -1.0402584e-05
  1.7214948e-06
 -6.1917494e-06
 -1.8464730e-06
  6.7950136e-06
 -1.5855370e-05
 -2.1633838e-05
 -4.5222450e-06
 -3.2567143e-05
 -1.0076303e-06
 -5.1824536e-06
 -1.7308248e-05
 -3.6902652e-06
 -7.1119530e-06
  5.2626470e-05
 -1.0990152e-06
 -1.0784441e-06
 -6.1853942e-05
 -7.2561073e-05
 -5.8692702e-05
  6.1805746e-05
 -6.4666260e-06
  3.3648539e-05
  2.1467065e-04
  6.1182895e-06
  5.1638250e-05
  3.3232380e-05
 -1.9099631e-05
 -4.3696069e-05
  3.6670649e-06
 -4.3695914e-06
 -6.7031964e-05
 -2.1171139e-05
  4.1820531e-06
 -6.7166919e-05
  1.9015293e-05
 -1.9424253e-06
 -1.3041779e-04
 -6.8544869e-06
 -2.9368698e-06
 -3.5380450e-04
 -4.3225796e-06
  5.2101777e-06
  2.2743618e-06
 -1.4183893e-04
 -2.1986525e-06
 -1.4958235e-05
  2.5521765e-06
 -6.2188951e-06
 -2.1589603e-05
  8.5941820e-06
 -2.6422733e-06
  1.6811317e-05
  1.8348726e-05
 -4.1656374e-05
  6.8745730e-06
 -2.6780426e-06
 -4.3156571e-05
 -2.1791261e-06
  2.2123822e-06
 -2.2099686e-05
 -3.8185171e-06
  2.3464614e-05
  2.3641599e-06
  1.0062927e-05
 -3.3706860e-06
  1.9793781e-05
  2.0749791e-05
 -2.5904671e-07
 -1.0366327e-05
 -1.4459531e-05
  1.6005723e-05
 -2.0615253e-05
  1.8567740e-05
 -5.0311322e-05
 -2.2717740e-07
  3.6397385e-05
 -5.0969411e-05
 -3.8693361e-06
 -1.9399069e-05
 -1.8000303e-05
  1.8990973e-05
 -3.4243400e-05
 -5.3034819e-06
 -1.0541557e-05
 -4.5552970e-05
 -1.7712296e+00
  6.4240748e-01
  9.9752021e-01
 -4.5229663e-05
  1.1589782e+00
  2.3057818e+00
  1.5339822e+00
 -5.2646208e-01
 -1.6793745e+00
 -1.7479455e+00
  5.2892985e-05
 -3.9713892e-01
 -1.2366071e+00
 -2.0518019e-03
  8.1945914e-01
  4.0196010e-01
 -5.0663143e-01
 -6.5758258e-01
 -2.0166331e-04
  5.0237364e-01
 -1.5747569e+00
 -5.4290342e-01
 -4.2997537e-05
 -4.2669404e-01
  9.2485592e-02
 -7.0899265e-04
  3.9982954e-01
 -1.5395282e-04
  2.5823775e-01
  4.8895141e-01
 -2.7213842e-04
  1.0832026e-01
  2.8883472e-01
  1.4731072e+00
  8.4107637e-02
  6.9662893e-01
 -2.1281712e-05
  7.7888225e-03
  1.0213292e+00
  1.5843064e-02
  5.4140873e-02
 -3.6805242e-01
  5.4512310e-01
 -5.4189845e-06
  2.0029250e-04
  1.5658841e-06
  1.3532220e-02
 -2.9276860e-01
  5.5585176e-01
 -1.9188679e-03
 -7.3508863e-06
  1.9246009e-01
  2.4906305e-05
 -3.3450426e-06
 -1.1306940e-05
  1.2753920e-04
  3.2860698e-05
 -1.1366764e+00
  2.6388819e-04
  4.3572625e-05
  7.7140838e-05
  6.5629349e-05
  1.0359143e+00
  9.9276731e-05
  1.2606962e-04
  1.5486463e+00
  1.5316678e+00
 -7.6445704e-06
 -3.2107002e-06
  2.6579031e-05
  3.4081102e-05
  1.8403514e-05
  1.6764901e-05
 -1.8750550e-06
 -6.4745700e-06
 -2.2538248e-05
 -7.8752182e-06
  5.5051291e-06
 -9.2260525e-06
  9.3517510e-06
  9.2201308e-06
 -1.6549842e-05
  5.4635035e-07
  1.4606823e-05
  2.6854191e-06
  7.5344419e-06
  1.7594522e-05
 -1.8318352e-06
 -3.9815741e-06
  2.3362026e-07
 -2.9443445e-05
 -3.8356134e-08
  2.1698410e-05
 -2.2702578e-05
  6.5962531e-06
  1.6197295e-06
 -2.0157074e-07
  2.9032260e-06
  3.4711858e-05
 -2.5679272e-05
  2.0178844e-05
 -1.5924721e-05
 -1.7408123e-05
 -8.3312570e-06
  3.7314101e-06
 -1.8965364e-05
  2.0250654e-06
  1.6670880e-05
  1.1784176e-05
 -2.6938626e-05
 -2.0890504e-05
 -1.8132455e-06
  6.5049176e-06
  3.1201980e-06
 -3.7279094e-06
 -1.6910177e-05
  1.0106370e-05
 -1.8106000e-05
  2.6125104e-05
  2.3928201e-06
 -1.8065684e-05
  9.4490770e-06
 -1.0250984e-05
 -1.0155491e-05
 -3.1542857e-06
  1.6270968e-05
  3.6319707e-05
 -3.3368189e-05
 -3.9403395e-07
  4.9593891e-06
 -5.3036511e-06
 -8.6922603e-07
  2.1713736e-06
  2.1809312e-05
  2.2230650e-05
 -2.6651578e-06
 -6.5272428e-02
  8.2694888e-02
 -1.8950037e-05
 -8.3801895e-03
 -1.4656204e-01
 -6.1872303e-03
 -3.1485761e-05
  5.5500150e-02
  7.1735121e-06
 -1.6849858e-04
  5.2139722e-02
  3.6512130e-05
  6.0429875e-02
 -3.5478967e-01
  1.6130807e-06
  7.9835816e-05
 -2.1372098e-05
 -2.2935831e-06
  5.5810013e-03
 -1.6651781e-01
  6.4660853e-06
 -1.3185216e-05
  2.2499762e-01
 -6.2379651e-05
 -2.4636658e-05
  4.6246660e-05
 -5.9380208e-04
 -1.3930691e-02
  5.6901597e-04
  4.9015865e-02
  3.0793434e-03
  4.2670978e-05
 -2.9065366e-06
  7.9322235e-05
 -1.7820032e-05
 -8.1629660e-06
  9.4872482e-02
 -3.0760439e-03
  3.6870802e-05
 -5.8275086e-06
 -4.0129978e-02
  5.1286352e-05
  1.2914613e-05
 -8.9512713e-02
  2.2200140e-05
 -2.4606306e-05
  1.1313803e+00
 -4.1267360e-04
  2.1197528e-05
 -3.2293894e-05
  5.3752650e-05
 -1.6695471e-04
 -2.3353557e-05
 -1.3377030e-05
  9.2487047e-05
  2.2036509e-05
 -3.7654434e-05
  5.2150849e-06
 -1.5322182e-02
 -4.0070483e-07
  2.2956172e-04
 -3.6050424e-05
 -3.8658036e-05
  1.2857775e-04
 -1.8968764e-06
  1.0458578e+00
 -4.2680949e-01
  3.4465629e-01
  9.5157439e-01
 -1.3330297e+00
 -1.6820567e-02
 -1.8642032e+00
  1.4667296e-02
  2.2160947e+00
 -3.0303041e-02
  3.7274775e-05
 -1.6942625e+00
  2.6595967e+00
 -5.2043879e-01
  1.0411604e-01
 -1.1700713e-01
 -2.6738375e-01
 -1.3120173e+00
 -1.9684780e-01
 -1.1867737e+00
 -9.2222261e-01
  1.8228806e+00
  1.3214120e-05
 -4.9542436e-01
 -2.7786563e-03
 -2.6354859e-05
  1.1128943e-01
 -2.5037923e-03
 -6.9945723e-01
  4.3835112e-01
 -3.6358932e-01
 -3.3755872e-01
 -4.8535854e-02
 -4.0146995e-02
 -2.8386288e-03
  7.0619524e-01
 -1.3243605e-01
 -2.2610296e-01
  2.4957858e-02
 -9.9370472e-02
 -1.1458217e+00
 -2.7509624e-01
 -7.3427513e-02
  2.2794768e-01
  2.1910226e+00
  9.6572894e-01
 -3.2538399e-01
 -2.3408028e-01
 -8.1578678e-01
 -1.5169638e-06
  3.7553600e-05
 -4.4937919e-05
  9.8879056e-05
 -6.5592949e-06
  1.4980954e-05
 -3.6410791e-05
  2.5154006e-05
  1.4830550e-05
 -2.0776274e-06
  1.0749415e-01
  7.8557273e-03
 -3.9825871e-05
 -9.9946126e-02
 -5.2606916e-05
 -4.7860241e-05
 -4.1869240e-05
 -8.6796403e-02
 -5.6025315e-06
 -3.5231535e-06
 -5.3637516e-05
  9.5886953e-06
 -1.0926405e-02
  5.8845717e-06
  9.2794917e-06
  4.3551431e-06
 -5.0019089e-06
  7.8876146e-06
  7.6907627e-06
  3.5372454e-05
  7.1431328e-05
  1.7004581e-05
 -5.7885540e-05
 -7.5993579e-05
  2.8557140e-06
 -6.9065809e-06
 -6.5241275e-06
 -2.8896252e-06
 -8.7749453e-05
 -7.6935694e-06
  6.3996736e-06
  1.1341368e-05
  2.1820959e-05
  1.3154277e-05
  4.3669363e-05
  4.1865012e-05
 -1.1696222e-05
  1.8999835e-04
 -3.3262309e-05
  6.0352249e-06
 -1.0802823e-05
 -2.9525259e-05
  1.0115038e-05
  8.0171576e-06
 -9.4788666e-06
 -1.6175172e-05
  6.0141106e-06
 -9.0943795e-05
 -7.1063390e-05
 -5.1977836e-06
  4.5111328e-08
 -7.5857088e-06
 -2.7075614e-05
  7.0001470e-06
 -5.6902558e-05
 -6.9748683e-05
  1.0172698e-05
  2.0614714e-06
  3.4759121e-06
 -5.1863572e-05
  1.2336086e-06
 -4.3584118e-05
  2.4743463e-07
  9.5958103e-07
  8.9214373e-06
  1.4053804e-06
  2.5611216e-06
  2.0252779e-05
  1.2324732e-05
 -3.3064873e-05
 -3.4757311e-05
  3.6309209e-06
 -8.0530008e-06
 -1.2972746e-05
  2.2613140e-06
  7.4902731e-01
 -9.5295686e-01
 -1.4456902e+00
  3.8350683e-01
  2.0251560e+00
 -1.6537852e+00
 -3.5854864e-01
  8.9568323e-01
  2.7283363e+00
  7.0761025e-01
  2.8572960e-02
 -6.4438736e-01
  6.6574734e-01
 -1.8891333e-01
 -7.4494177e-01
  2.6639964e-05
 -2.7948216e-04
 -4.4703195e-03
  1.6545893e-05
 -5.4413396e-01
  6.3589150e-01
  2.8680000e-02
 -5.2424461e-01
  4.9015714e-05
 -4.4202691e-01
 -3.1942784e-04
 -8.2696999e-05
 -1.6497346e-04
 -1.7563747e-01
 -1.6558005e-02
 -3.5018189e-04
 -1.8287525e-02
 -5.4220182e-01
 -9.9376842e-02
 -9.7527693e-04
 -3.2291725e-01
 -1.3175758e-05
  3.8888338e-03
 -6.3921715e-04
 -4.1444251e-01
 -6.3220608e-01
 -5.3358340e-01
 -1.6600725e-03
 -3.2251248e-06
 -2.1744123e-02
 -1.1340141e-01
 -3.0585319e-01
  3.6531061e-01
 -5.9854072e-01
  4.8594534e-06
 -2.1904036e-01
 -5.9979293e-06
  8.5903121e-06
  1.4636613e-04
 -1.0721553e-05
 -4.0895866e-05
  1.4427307e-05
  7.4553941e-06
 -4.2238244e-06
  3.3753924e-05
 -6.5199483e-06
 -4.8271858e-07
  9.1188349e-06
 -6.7328792e-06
  1.5020443e-05
  4.3816934e-05
  3.4352888e-05
 -1.1555819e-03
  8.5122680e-05
 -1.0452968e-01
 -6.1566681e-01
  4.5968790e-02
 -5.2603062e-02
  1.7489839e-02
  4.9462639e-02
 -1.5264081e-02
 -1.0282601e-01
 -7.0053625e-06
  1.6205035e-01
 -7.8741759e-05
  3.2506108e-02
 -1.0796546e-05
  3.0939664e-05
  6.5122955e-02
  1.7693672e-02
 -1.9008150e-04
  1.6481687e-03
 -5.1848788e-04
 -2.5677396e-04
  6.1807748e-02
  9.6549094e-03
  1.2839201e-04
 -6.1787064e-06
  8.1343656e-05
  3.2105196e-05
  6.0214028e-02
 -1.5215074e-04
  1.2716527e-01
  2.2129550e-05
 -2.0313691e-06
 -6.0302857e-05
  4.8318750e-05
 -4.2181573e-06
 -2.8904774e-06
  2.5843631e-02
  1.9084496e-02
 -3.6318554e-05
  9.0216068e-05
  7.7227259e-04
 -1.7482553e-05
 -2.1863278e-04
 -6.6821820e-05
 -5.3400814e-04
  1.4226825e-02
  1.2359625e-02
 -2.4427850e-02
 -1.6390495e-05
 -1.2949262e-05
  2.0133937e-06
 -1.7312117e-05
 -6.8376553e-06
  6.5738154e-06
  7.6837023e-06
  5.9093531e-05
 -7.8007333e-06
  1.4757109e-05
 -4.6430161e-04
 -6.4236191e-03
  1.4004974e-05
  3.0084047e-05
  4.2444175e-05
  8.0868667e-06
 -5.3639847e-05
 -1.5606983e-02
 -6.8315619e-01
 -7.0402867e-01
  3.0709580e-01
  1.0334553e+00
 -6.4067739e-01
  2.0445645e+00
  8.8398027e-01
 -1.6195470e+00
  1.5576817e+00
  4.1734156e-01
  7.3825204e-01
 -2.5742946e+00
  1.7787913e+00
 -2.4716976e-01
  3.1817786e-03
  5.8377695e-01
 -2.2305570e+00
 -1.0292810e+00
 -1.7509035e+00
 -5.3331631e-01
  6.1521584e-01
  3.6063981e-01
 -3.5490984e-01
 -1.5072213e-01
 -2.4512890e-01
 -4.2813128e-01
 -1.0161878e-04
 -1.1901582e+00
 -1.3597565e+00
 -1.5562274e-01
  2.8777555e-01
  2.9936882e-02
  4.3798453e-05
  2.3955444e-01
 -5.8398158e-03
 -6.1738914e-01
  7.4538166e-06
  3.1153461e-01
  2.4747558e-01
 -2.4395207e-01
 -3.4408221e-01
  5.9331812e-02
 -1.3466533e-01
 -7.2097600e-02
 -2.4079670e-01
  2.7159017e-01
 -2.4969084e-03
  6.2421387e-01
 -7.7536458e-01
 -8.6501136e-02
  4.5553137e-05
 -7.3587266e-06
  2.5432193e-04
 -8.5486573e-07
 -7.4602343e-05
 -8.3309416e-05
 -7.5788170e-02
 -4.9691780e-06
 -6.8031877e-06
  3.0922338e-02
 -5.1517513e-02
 -1.4188607e-05
  1.2396830e-04
 -1.0577140e-05
 -1.2452876e-05
  2.9914275e-02
  1.2504951e-02
 -6.2496312e-02
  6.4747620e-01
  1.0590633e+00
 -9.8268852e-02
 -1.7975518e+00
 -7.4864477e-01
  2.2495449e-07
 -5.1211132e-06
 -1.0672413e+00
 -3.1124821e+00
 -3.8945214e-05
  3.4573186e-05
  1.0785699e+00
 -9.9212199e-02
 -1.6978823e-02
  7.8963660e-02
  1.9598006e-04
 -5.0860351e-01
 -5.6943345e-01
 -2.3556805e-01
 -5.1866847e-01
 -5.4324615e-01
  1.9660345e-03
 -3.2151988e-01
  9.1422878e-02
  1.2869075e-05
  2.3790621e-03
  3.9317745e-01
  6.2059707e-06
 -5.4919392e-01
  5.9406948e-01
  7.6992726e-01
 -2.6339741e-02
  6.9523597e-01
  1.9186571e-05
  2.3286611e-02
  7.7212214e-02
  6.2811710e-02
 -3.9326135e-04
  1.3569540e-03
  2.6218057e-05
 -1.0175983e-05
 -1.6781108e-01
  1.9737020e-04
  5.7940339e-05
 -1.2536655e-05
  1.5806776e-04
 -4.5519996e-01
  2.5033511e-03
  1.7454036e-03
 -1.0206337e-01
 -1.1053817e-05
  6.2470922e-06
 -3.4565303e-06
 -1.1272095e-05
 -1.1911055e-06
  1.0034931e-01
  1.3813629e-05
  8.7071523e-05
 -1.1031425e-06
  3.2888347e-01
  1.4171207e-05
  1.2610457e-02
  5.3776766e-06
  1.0319623e-05
  6.1811544e-02
  2.2129700e-01
  1.5889700e-01
 -9.2313653e-01
  4.9332830e-01
  2.9693472e+00
  5.5103940e-01
  2.9164429e+00
 -2.4914203e+00
 -4.8108873e-01
  3.5284162e-02
  1.7185041e-01
  5.9454709e-01
  5.2400652e-02
 -7.4638025e-05
 -5.7499141e-01
 -1.2732099e-01
  2.5878063e-01
 -4.1675571e-01
 -3.3206290e-01
  8.1418589e-02
 -2.9563427e-01
 -8.8881284e-01
 -2.8327370e-01
  3.6888012e-01
  3.9196078e-02
  2.3101926e-01
  1.2537746e-02
  7.2157435e-02
 -2.8889960e-01
 -2.7809098e-01
  1.0196911e+00
 -7.3236428e-02
 -9.1586107e-01
 -1.4845807e-02
 -3.2406306e-01
  1.4599968e-01
  1.3040285e+00
 -3.6217299e-01
 -6.0846768e-02
 -9.7265339e-01
  1.9041477e-01
  1.2009171e-01
  2.0489965e-01
 -4.0905732e-03
  1.0629316e-01
  3.3266720e-01
 -1.3392171e-04
  4.2304046e-06
 -1.1253526e+00
  9.7065145e-01
 -2.5407053e-04
  1.1324031e-05
 -3.4101409e-05
  1.1926781e-05
 -4.2519846e-06
  1.4300680e-05
  8.2288097e-05
 -1.3834845e-03
 -2.3254634e-06
  5.3400232e-05
  2.5078055e-04
 -8.6929854e-03
  4.3099084e-05
  7.4786731e-05
  1.3500594e-05
  5.3026342e-06
  4.4551451e-02
  1.1780683e-01
  8.5733990e-07
  1.1737086e-05
 -3.2265334e-06
 -1.4044022e-05
  1.4316176e-05
  9.9343451e-06
  3.3376993e-05
  6.4098504e-06
 -4.2470147e-05
  1.1820526e-05
 -1.4056691e-06
 -4.2598727e-05
 -2.0999372e-05
 -4.5804977e-06
 -1.4133531e-05
  2.2149785e-05
 -1.3639439e-05
  7.8631410e-06
  3.9582497e-05
  7.0918309e-06
  7.8786215e-06
  7.6322294e-06
 -1.2208818e-05
  7.2099476e-07
  8.8470788e-06
  1.0083138e-04
 -6.3711857e-05
 -4.4800418e-05
  8.8419847e-06
  1.8708528e-05
 -8.2785946e-06
 -6.2586819e-06
  9.0263302e-06
  1.7493298e-06
 -1.4005742e-05
 -3.8810897e-05
 -2.3928399e-06
 -1.2101919e-05
  1.4293090e-05
  9.4554516e-06
  1.9275396e-06
  7.2717557e-05
  6.8036807e-06
 -1.1072487e-05
  7.3595779e-06
 -4.4612960e-05
 -7.4211704e-05
 -3.6673937e-05
 -3.8102848e-05
 -5.8186738e-06
 -6.2354779e-06
 -3.0535350e-05
  1.0246422e-05
  2.8739320e-05
  1.6364658e-05
  3.6200123e-05
 -5.9365370e-06
 -1.6185695e-07
  3.3063252e-06
 -1.4797809e-05
 -3.9182413e-07
 -2.7476097e-05
  1.1753142e-05
 -1.0285416e-05
 -2.7365006e-06
  8.3453906e-06
 -4.6370533e-05
  2.6763405e-04
 -2.7531362e-03
  4.0695325e-01
  5.5151826e-01
 -2.2981533e-01
 -1.9176944e-01
 -1.3713704e-02
 -1.1776843e+00
  4.6440922e-02
 -6.6107142e-01
 -2.1209944e-06
 -4.0876392e-01
  3.9169528e-05
 -2.8913196e-02
 -1.1172303e-04
 -3.3705889e-03
 -2.8787944e-01
 -1.4812734e-02
  1.7988617e-02
 -4.5199152e-02
  4.0992010e-05
 -8.8144362e-02
 -9.8401003e-02
  1.0711948e-01
 -1.5861841e-03
 -3.2563428e-05
 -5.1645413e-02
 -1.0134680e-04
 -5.3045016e-02
 -1.2449083e-05
 -1.0644542e-01
 -3.3119846e-02
 -7.4347801e-05
 -1.1058006e-01
  3.2899803e-05
 -1.9899737e-02
 -1.4191820e-02
 -1.5097912e-02
 -9.8240552e-03
  1.3194887e-04
  9.0911475e-05
  1.1535231e-04
 -9.6276308e-06
  9.7216241e-07
 -5.3307752e-04
 -2.6676822e-05
 -4.2019575e-03
 -2.5397516e-03
  1.7397720e-02
 -5.5593892e-04
  4.2023079e-05
 -4.4122164e-05
  5.3548334e-05
  2.8930068e-05
  3.0213507e-06
  6.4340411e-06
 -1.2399992e-02
 -1.2497731e-05
  8.2449169e-06
  1.5378292e-03
  2.9432233e-03
  2.6948534e-05
  7.5704957e-05
  1.5294969e-05
 -5.0854509e-05
  3.0882939e-04
  4.1627758e-03
  4.6895305e-03
  7.4511438e-05
 -3.8336722e-05
 -1.1228933e-01
 -2.7533434e-03
 -1.0305995e+00
 -5.8837418e-02
  2.4410180e-04
 -6.4930714e-06
 -4.2881635e-01
  2.9873119e-05
  1.2441677e-04
 -7.2372604e-05
  1.0569108e-04
 -5.3122708e-06
  2.0170888e-05
  8.8471170e-05
  1.4644158e-02
 -7.1734372e-05
 -8.4982157e-06
 -1.4709600e-05
  4.5202430e-02
  7.1128552e-06
  4.4499964e-01
  5.2211399e-06
 -3.9512529e-06
 -9.0260310e-06
  1.0075716e-05
  7.0350558e-05
  9.6754549e-05
  9.5789968e-05
  5.8127094e-05
 -3.5430940e-06
 -1.3198870e-05
  1.3855834e-05
 -9.4365978e-06
 -1.4205079e-05
 -3.4668639e-05
  3.6146848e-06
 -4.2960826e-05
  1.0310711e-04
 -6.3373409e-06
  1.0631714e-05
  2.8068625e-05
 -5.9130657e-06
  2.9829798e-06
  1.2509689e-05
  8.5907996e-05
  6.7854153e-06
  1.1159380e-05
 -2.4572403e-06
 -1.5765690e-05
 -1.9829124e-04
  5.6734571e-06
 -1.5300629e-05
 -7.9310922e-07
  8.9071931e-05
 -1.1456133e-05
 -4.5963796e-05
 -7.0889291e-05
 -1.8002628e-04
 -2.6200118e-05
 -3.4420471e-05
 -1.4381879e-05
  3.4050536e-05
 -1.3507803e-05
 -1.4416692e-05
 -1.4506574e-05
 -1.4252774e-05
 -3.7005231e-02
 -1.4624352e-04
 -1.1201416e-05
 -5.3047555e-05
 -1.0557255e-04
  3.3594330e-05
 -4.2318574e-05
 -5.4164219e-01
 -2.2444508e-05
  6.7792289e-06
 -7.1596232e-06
  9.4962343e-05
  1.2121963e-05
  1.2336932e-05
 -1.2234224e-05
  8.7896751e-06
 -7.6921111e-07
  6.6126639e-05
  3.1016505e-05
 -3.5730784e-05
  4.4971544e-05
  8.5541418e-05
  9.9606885e-05
 -3.8121823e-05
  1.3810120e-05
  6.6742391e-06
 -1.2811318e-05
  6.4790947e-05
 -4.3274053e-05
  3.8911308e-05
 -1.4053376e-06
  3.5521047e-05
  2.7333459e-05
 -4.2193413e-09
  4.2852553e-05
  1.0623953e-04
  1.0245874e-05
 -3.2498642e-06
 -4.3422233e-06
  7.6020378e-06
  1.5527647e-05
 -2.4062962e-07
 -4.5495303e-06
  1.0283890e-05
  9.3056988e-06
  1.5703903e-07
  2.4210402e-05
 -5.8438231e-06
 -1.7483202e-05
 -2.5307407e-05
 -6.8912879e-05
 -5.7393794e-05
 -1.3655771e-05
 -1.2557681e-05
  1.1604307e-05
  2.3057259e-05
  6.4004143e-06
  1.0297549e-05
 -3.3949931e-05
  1.5493988e-05
  4.1700418e-06
  1.1703101e-05
  6.9421862e-06
 -4.6269861e-06
 -7.3552263e-05
 -3.8559785e-05
 -5.0761041e-06
  1.0584500e-05
  9.7966649e-06
  1.5360172e-06
  7.4523327e-06
  6.0890961e-06
  1.8686535e-06
 -1.2198990e-05
  1.3120622e-05
  1.3699526e-05
  9.9320823e-06
  6.8958989e-06
  1.2680830e-05
 -9.9232157e-06
 -2.3150998e-05
  1.2599871e-05
  5.2621076e-06
  5.3158865e-06
  5.2731471e-06
 -6.6542758e-05
 -1.9437341e-06
 -1.3766716e-05
 -6.8426457e-06
  7.8901812e-06
  1.1759852e-05
  4.0484112e-05
  3.9307593e-05
 -2.4533406e-06
  2.0847272e-05
  2.1829595e-05
  3.5102507e-06
 -4.9559698e-05
  4.6424334e-06
 -5.0430372e-06
  9.6958115e-07
 -1.4910698e-05
  1.2066995e-05
 -1.2641709e-04
  3.0324143e-05
 -9.6400963e-06
 -1.3657150e-05
 -2.1223294e-05
  4.4959729e-06
 -1.2294400e-05
 -1.3783920e-05
 -2.9816101e-06
  7.8177072e-06
  3.5602923e-05
 -1.4618699e-05
  8.2655106e-07
  1.5068881e-05
  3.5502851e-06
 -1.3505474e-05
  2.8891327e-07
 -1.1349769e-05
  3.5564506e-05
 -2.0803942e-05
 -8.7735403e-05
  5.9157824e-06
  1.1614500e-06
  4.2610131e-06
  1.2498738e-05
  1.1936950e-06
  6.4514138e-06
 -7.9993097e-06
  1.2391873e-05
 -6.3505836e-02
 -2.8886681e-04
  4.4629812e-01
  5.5166218e-02
 -2.6051842e-03
  6.2010992e-01
  1.0971579e-04
 -2.9613448e-06
  3.9988605e-05
 -1.3010459e-01
  3.0781096e-04
 -1.6509720e-04
 -5.7477895e-02
 -6.4723089e-02
 -3.6643047e-05
 -3.6184940e-01
 -2.4015229e-02
 -4.1266680e-02
 -5.4805605e-05
 -4.2581078e-06
  2.0172652e-04
 -3.5873419e-01
  5.0135932e-05
  9.6549101e-02
 -3.0997094e-02
  7.2884119e-05
 -4.0242042e-02
 -2.0751651e-05
  4.2049516e-05
  1.4814708e-05
 -2.0580858e-02
 -4.7558973e-07
 -1.1013512e-03
  2.5328562e-01
 -7.5178746e-06
  1.5412322e-01
  4.1526117e-05
 -4.0872108e-02
 -5.9540896e-04
  1.8802786e-01
 -1.6399010e-06
 -2.1003287e-02
  1.5632113e-03
  3.1631967e-05
 -1.2705548e-01
 -5.5399323e-05
 -5.8960239e-04
 -1.3221104e-01
 -1.0509509e-05
 -3.6579655e-05
  6.4895168e-05
  1.4824896e-05
  1.7578242e-05
  1.0724345e-05
  3.1543237e-05
  1.2023696e-05
 -3.2324424e-05
 -1.2654918e-05
 -7.6990318e-06
 -9.8877690e-06
 -1.0227780e-02
  1.1432557e-05
  5.3316144e-06
 -1.4576101e-05
  1.1907836e-05
 -1.3792454e-05
 -1.3634150e-05
 -1.3768135e-06
  4.9456612e-05
  1.6292765e+00
  1.0471724e-05
 -2.3579566e-01
  5.7312018e-01
  8.0490736e-06
 -1.3375864e-05
 -5.9115028e-01
 -5.8470187e-06
  8.9098537e-01
 -1.1342667e+00
  6.9359893e-01
 -1.9473712e+00
  5.8695633e-04
 -2.2786083e+00
  7.7122182e-01
 -9.9127577e-04
 -7.7069378e-01
 -1.0720921e-05
 -9.2532647e-01
  9.0237788e-04
 -1.4046687e+00
 -1.3394566e-05
 -1.9954539e-05
 -1.4884716e+00
 -4.9540311e-01
  3.0305848e-01
 -2.9794638e+00
 -2.2655438e-05
 -1.9587607e-04
 -1.1176664e-06
 -6.6898610e-06
  3.9014009e-05
 -9.4352800e-01
 -7.3532377e-05
  1.4430690e+00
 -1.8178475e+00
  1.8567669e-04
 -2.5605965e+00
  1.9471183e-04
  8.1733331e-02
 -1.4811683e+00
  5.3259581e-01
  8.0630962e-06
  1.4874040e-01
 -3.0102143e-01
  1.2376403e+00
  3.0608519e-06
 -1.0369196e+00
 -4.1890494e-06
  9.0929763e-03
 -8.1857675e-01
  1.0174143e-01
  6.2586385e-01
  2.9114330e-01
  1.3808635e-05
 -7.6266184e-02
 -9.8973227e-01
 -1.3952097e-05
  2.5234458e+00
 -1.0446427e+00
  6.2180692e-01
 -1.9573392e-01
  7.2496569e-01
 -4.5514029e-01
  2.2610824e+00
 -4.9760431e-01
 -7.6036179e-01
  1.0790730e-05
  6.2210047e-01
  2.5486568e-01
  1.8242775e+00
  1.9974748e-06
 -5.4133798e-06
 -1.2653395e+00
  7.9103380e-01
  3.5829440e-01
 -7.0631099e-01
 -1.0419453e-03
  2.7616853e-03
 -4.1517727e-05
 -2.2512129e-05
  2.3624974e-03
 -4.3350129e+00
 -1.1219490e-04
 -1.0392830e+00
 -6.1097038e-01
  4.3999849e-04
 -4.8137468e-01
  4.8125878e-01
 -6.9304848e-01
  1.8404356e+00
 -4.7073168e-01
 -1.7440974e-05
 -5.9855604e-01
  1.8424836e-01
  2.9946890e-01
  3.2828277e-05
 -1.2528439e+00
 -7.0828276e+00
 -2.0172293e+00
 -3.4995759e+00
  1.1140238e+00
  1.1922290e+00
 -2.7681649e+00
 -7.8322011e-01
 -1.7959485e+00
 -5.1148885e-01
  2.1715391e+00
 -4.2953539e-01
  9.3198293e-01
 -4.6939424e-01
  1.4175422e+00
  3.1500942e-01
 -5.4117852e-01
 -7.0669258e-01
  9.1056287e-01
 -1.6973855e+00
 -1.1080775e+00
 -6.0244954e-01
 -1.5555670e+00
  1.2484052e+00
  1.5817893e+00
  1.5226591e+00
  1.0435921e+00
  7.2477406e-01
  6.9171512e-01
  5.3684149e-02
 -8.7069562e-03
  7.9304940e-01
  1.3069775e-04
 -2.2028804e+00
 -2.8378561e-01
  6.8393451e-01
  2.2984102e+00
  5.1104152e-01
  4.6761602e-01
 -6.4783847e-01
  7.6551306e-01
  9.1119468e-01
  1.7331674e+00
  3.0523607e-01
  3.0631216e+00
  2.6321322e-02
  3.4547228e-01
 -3.3470695e+00
 -9.3152530e-02
  8.5277307e-01
 -1.2112782e-01
 -2.0864151e+00
 -2.8034294e+00
 -3.7018305e-01
 -2.4804087e-01
  6.2696733e+00
 -2.0455637e+00
 -6.9674236e-01
  4.8013005e+00
  1.3763994e+00
 -3.9682558e-01
  5.0117910e-01
  1.1410592e+00
 -1.7252227e+00
 -6.6300839e-01
  3.0979630e-01
  5.1013529e-01
  1.0835313e+00
  9.3588507e-01
 -2.9166183e+00
  7.4807626e-01
  2.1787367e+00
 -9.7435409e-01
 -1.1136568e-03
  1.7527548e+00
  1.9830555e+00
 -1.5909414e+00
 -2.4562544e-01
 -1.0133722e+00
  1.8850142e+00
  2.1325762e+00
  2.9475746e+00
 -5.3208656e+00
  6.8705714e-01
  2.1656203e-01
 -2.0603317e-01
  1.8034526e+00
  9.2957932e-01
 -1.7090662e+00
  6.0547644e-01
  2.1352384e+00
 -9.1522986e-01
 -3.4272495e-01
 -2.1521249e+00
 -1.1051439e+00
  1.3363640e-01
  7.1145318e-02
 -1.0049086e-01
  1.3623317e+00
  2.0473588e+00
  1.4921885e+00
 -1.0174855e+00
 -4.9199095e-01
  1.6343321e+00
  8.7388838e-03
  2.0483279e+00
 -6.4424074e-01
 -1.7118772e+00
  3.7929473e+00
  5.3588726e-02
  8.0122721e-01
 -2.0697274e+00
 -1.9590089e+00
  1.4584906e+00
 -1.5350878e-01
 -1.1111784e+00
 -1.5106691e+00
 -9.3034372e-02
  4.7644556e-01
 -4.5457083e-01
 -1.2823624e-05
 -9.1913164e-02
 -3.1644135e+00
  2.3449149e+00
  4.4606149e-01
 -9.5474046e-01
  1.0875964e+00
 -4.8910210e-01
 -1.5615441e+00
 -3.2317701e-01
 -5.6674141e-01
 -8.3768994e-01
  2.2955775e-01
 -1.4656105e-04
 -6.4980674e-01
  1.6401492e+00
 -6.6264425e-07
  5.8014244e-01
 -1.3352089e+00
  4.1958067e-01
 -2.7321011e-01
  6.4893770e-01
 -1.5894162e-05
 -1.7109771e-01
 -2.3519053e-01
  6.0419148e-01
  1.5570551e+00
 -1.1307220e+00
 -1.1139441e-01
 -1.0044912e+00
  7.4568599e-01
 -6.3314605e-01
 -5.1781446e-01
 -2.1385190e+00
  5.8041409e-02
  2.6741526e+00
  9.7043067e-01
  6.2039030e-01
 -4.6582067e-01
 -2.8664229e+00
  1.1707964e+00
  7.7077188e-02
 -2.3945189e+00
  1.0758361e+00
 -3.3011977e-02
 -1.9073193e-01
  2.2120218e+00
  9.4458747e-01
  1.8216048e+00
 -8.4646976e-01
 -8.1575900e-01
  4.6428382e-02
 -1.3435789e+00
  1.6369655e+00
 -3.1280279e-02
 -2.7894366e+00
 -1.4129059e+00
 -4.6075988e-01
 -3.3598131e-01
  2.6436782e-01
 -2.7911001e-01
 -9.0110326e-01
 -9.5721567e-01
  3.8983721e-01
 -3.0596202e-02
 -1.5182091e-05
  9.9637480e-03
  4.3358821e-01
 -1.1294500e+00
  1.6780083e+00
  1.9161926e-01
 -2.2394946e+00
  4.3596974e-01
 -5.1751739e-01
 -3.2222122e-01
  1.0983869e+00
  5.4308921e-01
  6.8288893e-01
 -2.9475015e-01
  3.5302169e+00
  3.2464714e-06
 -2.9303010e-05
  2.8536644e+00
  7.1416175e-01
  2.9277205e-01
  2.1947986e-01
 -3.8430563e-01
  3.2734449e-04
  9.1897017e-01
  7.2339249e-01
  1.1417807e+00
 -1.1491348e+00
 -3.6535314e-01
 -5.7079129e+00
 -7.7914041e-01
  1.9445893e+00
  1.3696868e+00
 -3.3875138e-01
  2.1675421e-02
  1.3368045e+00
  9.2209011e-01
 -1.0405138e-01
 -6.1379021e-01
  1.7327789e+00
  3.7895010e+00
 -2.6887622e+00
 -2.4880122e-01
  1.5538614e+00
  2.8723785e-01
  7.9115123e-02
  4.0496659e-02
  1.1993651e+00
  1.0820327e+00
  4.1864419e-01
 -1.3129504e-01
 -3.0024168e-01
  2.2329924e+00
  2.3045764e+00
 -6.4014500e-01
 -8.8523299e-01
 -2.0225244e+00
  1.3596596e-01
 -1.4245550e-01
  1.1788701e-02
  6.7475909e-01
  1.0971456e+00
  8.2540649e-01
  7.9821348e-01
  8.5726222e-03
  1.4362456e+00
  2.4642017e+00
 -3.3940728e+00
 -1.7525855e+00
  3.2454236e+00
 -2.9004142e-01
 -1.2321408e+00
  1.2706673e-01
  2.6778665e+00
  6.4390457e-01
  1.6924459e-01
  3.1694290e-01
  7.8813314e-01
 -3.7197649e-01
 -1.3859862e+00
  1.4135371e+00
 -1.9974177e+00
 -1.0669427e+00
  1.9075010e+00
 -2.4558477e+00
 -1.3796979e-01
  4.2278790e-03
  8.3207375e-01
 -1.5740988e-01
 -4.8531911e-01
 -5.6454939e-01
 -1.9360253e-01
 -7.7412903e-01
 -2.2001054e-02
 -2.5904887e+00
  1.1311007e+00
 -4.3604523e-02
 -1.0226463e+00
 -1.3012116e-02
 -2.3293799e-01
 -1.8895659e-01
 -1.1518245e+00
 -7.6302594e-01
 -4.1464055e-01
  3.6488085e-03
  3.6488085e-03
  3.6488085e-03
  3.6488085e-03
  3.6488085e-03
  3.6488085e-03
  3.6488085e-03
  3.6488085e-03
  3.6488085e-03
  3.6488085e-03
  3.6488085e-03
  3.6488085e-03
  3.6488085e-03
  1.7005499e-02
  1.7005499e-02
  1.7005499e-02
  1.7005499e-02
  1.7005499e-02
  1.7005499e-02
  1.7005499e-02
  1.7005499e-02
  1.7005499e-02
  1.6626410e-02
  1.6626410e-02
  1.6626410e-02
  1.6626410e-02
  1.6626410e-02
  1.6626410e-02
  1.6626410e-02
  1.6626410e-02
  1.6626410e-02
  1.4363908e-02
  1.4363908e-02
  1.4363908e-02
  1.4363908e-02
  1.4363908e-02
  1.4363908e-02
  1.4363908e-02
  1.4363908e-02
  1.4363908e-02
  7.7172839e-03
  7.7172839e-03
  7.7172839e-03
  7.7172839e-03
  7.7172839e-03
  7.7172839e-03
  7.7172839e-03
  7.7172839e-03
  7.7172839e-03
  5.7326257e-03
  5.7326257e-03
  5.7326257e-03
  5.7326257e-03
  5.7326257e-03
  5.7326257e-03
  5.7326257e-03
  5.7326257e-03
  5.7326257e-03
  6.1968656e-04
  6.1968656e-04
  6.1968656e-04
  6.1968656e-04
  6.1968656e-04
  6.1968656e-04
  6.1968656e-04
  6.1968656e-04
  6.1968656e-04
